<?xml version="1.0"?>
<opencv_storage>
<cascade>
  <stageType>BOOST</stageType>
  <featureType>HAAR</featureType>
  <height>24</height>
  <width>24</width>
  <stageParams>
    <boostType>GAB</boostType>
    <minHitRate>9.9500000476837158e-01</minHitRate>
    <maxFalseAlarm>5.0000000000000000e-01</maxFalseAlarm>
    <weightTrimRate>9.4999999999999996e-01</weightTrimRate>
    <maxDepth>1</maxDepth>
    <maxWeakCount>100</maxWeakCount></stageParams>
  <featureParams>
    <maxCatCount>0</maxCatCount>
    <featSize>1</featSize>
    <mode>BASIC</mode></featureParams>
  <stageNum>24</stageNum>
  <stages>
    <!-- stage 0 -->
    <_>
      <maxWeakCount>6</maxWeakCount>
      <stageThreshold>-1.4155396223068237e+00</stageThreshold>
      <weakClassifiers>
        <_>
          <internalNodes>
            0 -1 35 -1.8041089177131653e-02</internalNodes>
          <leafValues>
            3.7634408473968506e-01 -6.9476079940795898e-01</leafValues></_>
        <_>
          <internalNodes>
            0 -1 32 -7.9156309366226196e-03</internalNodes>
          <leafValues>
            -9.3720293045043945e-01 2.8084325790405273e-01</leafValues></_>
        <_>
          <internalNodes>
            0 -1 236 2.4955555796623230e-02</internalNodes>
          <leafValues>
            -4.3552201986312866e-01 6.2661546468734741e-01</leafValues></_>
        <_>
          <internalNodes>
            0 -1 14 -4.2619779706001282e-01</internalNodes>
          <leafValues>
            -7.7331066131591797e-01 2.5680986046791077e-01</leafValues></_>
        <_>
          <internalNodes>
            0 -1 77 4.3359589576721191e-01</internalNodes>
          <leafValues>
            2.0580489933490753e-01 -9.4601470232009888e-01</leafValues></_>
        <_>
          <internalNodes>
            0 -1 267 -7.8881904482841492e-03</internalNodes>
          <leafValues>
            -9.0081012248992920e-01 1.4834703505039215e-01</leafValues></_></weakClassifiers></_>
    <!-- stage 1 -->
    <_>
      <maxWeakCount>11</maxWeakCount>
      <stageThreshold>-1.3236476182937622e+00</stageThreshold>
      <weakClassifiers>
        <_>
          <internalNodes>
            0 -1 145 4.3612446635961533e-02</internalNodes>
          <leafValues>
            -6.7418545484542847e-01 1.5044248104095459e-01</leafValues></_>
        <_>
          <internalNodes>
            0 -1 31 -4.5043699443340302e-02</internalNodes>
          <leafValues>
            5.4378896951675415e-01 -2.8665113449096680e-01</leafValues></_>
        <_>
          <internalNodes>
            0 -1 291 -4.7178252134472132e-04</internalNodes>
          <leafValues>
            -7.5719654560089111e-01 1.7129021883010864e-01</leafValues></_>
        <_>
          <internalNodes>
            0 -1 103 -2.3791879415512085e-02</internalNodes>
          <leafValues>
            6.7206722497940063e-01 -1.7735382914543152e-01</leafValues></_>
        <_>
          <internalNodes>
            0 -1 38 4.6827003825455904e-04</internalNodes>
          <leafValues>
            1.7502842843532562e-01 -8.2598859071731567e-01</leafValues></_>
        <_>
          <internalNodes>
            0 -1 235 7.1125696413218975e-03</internalNodes>
          <leafValues>
            -1.8450985848903656e-01 8.5949552059173584e-01</leafValues></_>
        <_>
          <internalNodes>
            0 -1 12 -2.9020407795906067e-01</internalNodes>
          <leafValues>
            -5.6118959188461304e-01 2.1523232758045197e-01</leafValues></_>
        <_>
          <internalNodes>
            0 -1 232 2.8913300484418869e-02</internalNodes>
          <leafValues>
            -2.8004804253578186e-01 5.0371062755584717e-01</leafValues></_>
        <_>
          <internalNodes>
            0 -1 187 5.0752859562635422e-02</internalNodes>
          <leafValues>
            -1.9016638398170471e-01 6.5107828378677368e-01</leafValues></_>
        <_>
          <internalNodes>
            0 -1 142 -1.3106268644332886e-01</internalNodes>
          <leafValues>
            8.8996493816375732e-01 -1.3579088449478149e-01</leafValues></_>
        <_>
          <internalNodes>
            0 -1 285 -3.7943595089018345e-04</internalNodes>
          <leafValues>
            -7.3133629560470581e-01 2.0327939093112946e-01</leafValues></_></weakClassifiers></_>
    <!-- stage 2 -->
    <_>
      <maxWeakCount>11</maxWeakCount>
      <stageThreshold>-1.0033316612243652e+00</stageThreshold>
      <weakClassifiers>
        <_>
          <internalNodes>
            0 -1 37 -3.7781037390232086e-02</internalNodes>
          <leafValues>
            2.5287356972694397e-01 -6.1862528324127197e-01</leafValues></_>
        <_>
          <internalNodes>
            0 -1 262 1.8134921789169312e-02</internalNodes>
          <leafValues>
            -2.9487091302871704e-01 4.2892125248908997e-01</leafValues></_>
        <_>
          <internalNodes>
            0 -1 15 -1.3318058336153626e-04</internalNodes>
          <leafValues>
            -5.1684844493865967e-01 2.0786327123641968e-01</leafValues></_>
        <_>
          <internalNodes>
            0 -1 189 -1.5174661576747894e-01</internalNodes>
          <leafValues>
            -6.7628866434097290e-01 1.4343892037868500e-01</leafValues></_>
        <_>
          <internalNodes>
            0 -1 98 -5.6563678663223982e-04</internalNodes>
          <leafValues>
            -4.0954795479774475e-01 2.8444448113441467e-01</leafValues></_>
        <_>
          <internalNodes>
            0 -1 124 6.1225429177284241e-02</internalNodes>
          <leafValues>
            -2.5736325979232788e-01 4.0442761778831482e-01</leafValues></_>
        <_>
          <internalNodes>
            0 -1 202 -1.1877270415425301e-02</internalNodes>
          <leafValues>
            6.4268982410430908e-01 -2.0104113221168518e-01</leafValues></_>
        <_>
          <internalNodes>
            0 -1 153 1.3909728731960058e-03</internalNodes>
          <leafValues>
            1.7988564074039459e-01 -6.9551378488540649e-01</leafValues></_>
        <_>
          <internalNodes>
            0 -1 163 7.4532926082611084e-03</internalNodes>
          <leafValues>
            -2.6286739110946655e-01 4.0218859910964966e-01</leafValues></_>
        <_>
          <internalNodes>
            0 -1 104 4.1937321424484253e-02</internalNodes>
          <leafValues>
            -2.5615805387496948e-01 4.5568472146987915e-01</leafValues></_>
        <_>
          <internalNodes>
            0 -1 136 2.0753039279952645e-04</internalNodes>
          <leafValues>
            2.2356933355331421e-01 -4.8691546916961670e-01</leafValues></_></weakClassifiers></_>
    <!-- stage 3 -->
    <_>
      <maxWeakCount>10</maxWeakCount>
      <stageThreshold>-9.8490524291992188e-01</stageThreshold>
      <weakClassifiers>
        <_>
          <internalNodes>
            0 -1 195 -3.4874135162681341e-03</internalNodes>
          <leafValues>
            8.8495574891567230e-02 -6.3909775018692017e-01</leafValues></_>
        <_>
          <internalNodes>
            0 -1 213 -1.2071986496448517e-01</internalNodes>
          <leafValues>
            -6.2906253337860107e-01 1.0414338111877441e-01</leafValues></_>
        <_>
          <internalNodes>
            0 -1 179 -2.6848353445529938e-04</internalNodes>
          <leafValues>
            -6.0273402929306030e-01 1.5005876123905182e-01</leafValues></_>
        <_>
          <internalNodes>
            0 -1 83 -3.7008753861300647e-04</internalNodes>
          <leafValues>
            -6.4671921730041504e-01 1.5123343467712402e-01</leafValues></_>
        <_>
          <internalNodes>
            0 -1 154 -2.4023044109344482e-01</internalNodes>
          <leafValues>
            3.1451910734176636e-01 -2.8138381242752075e-01</leafValues></_>
        <_>
          <internalNodes>
            0 -1 159 2.4774054065346718e-02</internalNodes>
          <leafValues>
            -1.3502681255340576e-01 7.1131253242492676e-01</leafValues></_>
        <_>
          <internalNodes>
            0 -1 293 -2.5794870452955365e-04</internalNodes>
          <leafValues>
            -5.2560406923294067e-01 1.9608362019062042e-01</leafValues></_>
        <_>
          <internalNodes>
            0 -1 221 -8.2144811749458313e-03</internalNodes>
          <leafValues>
            6.0677993297576904e-01 -1.9851870834827423e-01</leafValues></_>
        <_>
          <internalNodes>
            0 -1 61 -2.9200769960880280e-02</internalNodes>
          <leafValues>
            -7.0775282382965088e-01 1.3319984078407288e-01</leafValues></_>
        <_>
          <internalNodes>
            0 -1 90 1.3076486065983772e-02</internalNodes>
          <leafValues>
            -2.1493487060070038e-01 5.8455002307891846e-01</leafValues></_></weakClassifiers></_>
    <!-- stage 4 -->
    <_>
      <maxWeakCount>9</maxWeakCount>
      <stageThreshold>-1.0384324789047241e+00</stageThreshold>
      <weakClassifiers>
        <_>
          <internalNodes>
            0 -1 96 -3.5544976592063904e-02</internalNodes>
          <leafValues>
            -8.0377358198165894e-01 -6.1111111193895340e-02</leafValues></_>
        <_>
          <internalNodes>
            0 -1 19 -1.9157763570547104e-02</internalNodes>
          <leafValues>
            4.0252307057380676e-01 -3.6832436919212341e-01</leafValues></_>
        <_>
          <internalNodes>
            0 -1 68 -1.0292206704616547e-01</internalNodes>
          <leafValues>
            -8.9850270748138428e-01 1.2046788632869720e-01</leafValues></_>
        <_>
          <internalNodes>
            0 -1 271 9.2714624479413033e-03</internalNodes>
          <leafValues>
            -3.2655227184295654e-01 4.4542756676673889e-01</leafValues></_>
        <_>
          <internalNodes>
            0 -1 24 5.2094709873199463e-01</internalNodes>
          <leafValues>
            1.2865854799747467e-01 -8.6969721317291260e-01</leafValues></_>
        <_>
          <internalNodes>
            0 -1 123 5.3707370534539223e-03</internalNodes>
          <leafValues>
            -3.1826350092887878e-01 4.4024699926376343e-01</leafValues></_>
        <_>
          <internalNodes>
            0 -1 115 1.5667907427996397e-03</internalNodes>
          <leafValues>
            -3.0231487751007080e-01 4.4155061244964600e-01</leafValues></_>
        <_>
          <internalNodes>
            0 -1 122 1.2735437601804733e-02</internalNodes>
          <leafValues>
            -2.4223013222217560e-01 4.8197528719902039e-01</leafValues></_>
        <_>
          <internalNodes>
            0 -1 120 -4.7651905566453934e-02</internalNodes>
          <leafValues>
            7.4062609672546387e-01 -1.9382239878177643e-01</leafValues></_></weakClassifiers></_>
    <!-- stage 5 -->
    <_>
      <maxWeakCount>8</maxWeakCount>
      <stageThreshold>-1.6989262104034424e+00</stageThreshold>
      <weakClassifiers>
        <_>
          <internalNodes>
            0 -1 65 -5.3481709957122803e-01</internalNodes>
          <leafValues>
            -7.4056601524353027e-01 3.9303481578826904e-01</leafValues></_>
        <_>
          <internalNodes>
            0 -1 105 -3.1942653656005859e-01</internalNodes>
          <leafValues>
            -7.6318317651748657e-01 1.2261459976434708e-01</leafValues></_>
        <_>
          <internalNodes>
            0 -1 30 -1.3752604834735394e-02</internalNodes>
          <leafValues>
            3.2880762219429016e-01 -4.2769306898117065e-01</leafValues></_>
        <_>
          <internalNodes>
            0 -1 6 -1.2937108986079693e-03</internalNodes>
          <leafValues>
            -6.2788236141204834e-01 2.4824561178684235e-01</leafValues></_>
        <_>
          <internalNodes>
            0 -1 44 9.7336526960134506e-03</internalNodes>
          <leafValues>
            1.4084103703498840e-01 -8.0983388423919678e-01</leafValues></_>
        <_>
          <internalNodes>
            0 -1 238 -2.9350788099691272e-04</internalNodes>
          <leafValues>
            4.4150283932685852e-01 -3.0453479290008545e-01</leafValues></_>
        <_>
          <internalNodes>
            0 -1 70 -2.4278363585472107e-01</internalNodes>
          <leafValues>
            -4.2525339126586914e-01 3.9633890986442566e-01</leafValues></_>
        <_>
          <internalNodes>
            0 -1 162 -2.1392647176980972e-03</internalNodes>
          <leafValues>
            6.0810339450836182e-01 -2.4837464094161987e-01</leafValues></_></weakClassifiers></_>
    <!-- stage 6 -->
    <_>
      <maxWeakCount>10</maxWeakCount>
      <stageThreshold>-9.0543639659881592e-01</stageThreshold>
      <weakClassifiers>
        <_>
          <internalNodes>
            0 -1 55 -6.1013391241431236e-03</internalNodes>
          <leafValues>
            2.3270440101623535e-01 -5.8369100093841553e-01</leafValues></_>
        <_>
          <internalNodes>
            0 -1 155 2.2094603627920151e-03</internalNodes>
          <leafValues>
            2.6862773299217224e-01 -5.9786790609359741e-01</leafValues></_>
        <_>
          <internalNodes>
            0 -1 237 -6.3416734337806702e-04</internalNodes>
          <leafValues>
            6.4449453353881836e-01 -2.1104201674461365e-01</leafValues></_>
        <_>
          <internalNodes>
            0 -1 225 1.1926553270313889e-05</internalNodes>
          <leafValues>
            -2.8066080808639526e-01 4.5187404751777649e-01</leafValues></_>
        <_>
          <internalNodes>
            0 -1 180 -1.9874690100550652e-02</internalNodes>
          <leafValues>
            6.4211100339889526e-01 -1.9512321054935455e-01</leafValues></_>
        <_>
          <internalNodes>
            0 -1 93 -1.7579974234104156e-01</internalNodes>
          <leafValues>
            -3.3109414577484131e-01 3.7576797604560852e-01</leafValues></_>
        <_>
          <internalNodes>
            0 -1 243 -3.4322489227633923e-05</internalNodes>
          <leafValues>
            4.0994191169738770e-01 -4.1128480434417725e-01</leafValues></_>
        <_>
          <internalNodes>
            0 -1 121 3.1305351294577122e-03</internalNodes>
          <leafValues>
            -2.7288952469825745e-01 5.1890754699707031e-01</leafValues></_>
        <_>
          <internalNodes>
            0 -1 80 -5.3173899650573730e-03</internalNodes>
          <leafValues>
            6.8157976865768433e-01 -1.5732890367507935e-01</leafValues></_>
        <_>
          <internalNodes>
            0 -1 254 -2.1151422988623381e-03</internalNodes>
          <leafValues>
            6.5214043855667114e-01 -1.7950865626335144e-01</leafValues></_></weakClassifiers></_>
    <!-- stage 7 -->
    <_>
      <maxWeakCount>11</maxWeakCount>
      <stageThreshold>-1.4078491926193237e+00</stageThreshold>
      <weakClassifiers>
        <_>
          <internalNodes>
            0 -1 111 -7.2250738739967346e-02</internalNodes>
          <leafValues>
            2.9936304688453674e-01 -6.0256409645080566e-01</leafValues></_>
        <_>
          <internalNodes>
            0 -1 1 7.4531417340040207e-04</internalNodes>
          <leafValues>
            8.8118590414524078e-02 -9.0020143985748291e-01</leafValues></_>
        <_>
          <internalNodes>
            0 -1 1 -4.5278877951204777e-04</internalNodes>
          <leafValues>
            -6.2169593572616577e-01 2.0571795105934143e-01</leafValues></_>
        <_>
          <internalNodes>
            0 -1 204 -7.2681822348386049e-04</internalNodes>
          <leafValues>
            8.9948117733001709e-02 -7.1596699953079224e-01</leafValues></_>
        <_>
          <internalNodes>
            0 -1 219 1.2341012188699096e-04</internalNodes>
          <leafValues>
            2.0646584033966064e-01 -4.4376420974731445e-01</leafValues></_>
        <_>
          <internalNodes>
            0 -1 141 -1.0384627617895603e-02</internalNodes>
          <leafValues>
            3.7377828359603882e-01 -2.6623070240020752e-01</leafValues></_>
        <_>
          <internalNodes>
            0 -1 199 -2.0838497206568718e-02</internalNodes>
          <leafValues>
            6.0393756628036499e-01 -1.9616039097309113e-01</leafValues></_>
        <_>
          <internalNodes>
            0 -1 206 1.8745541456155479e-04</internalNodes>
          <leafValues>
            1.9024793803691864e-01 -5.9490710496902466e-01</leafValues></_>
        <_>
          <internalNodes>
            0 -1 250 -2.6297867298126221e-03</internalNodes>
          <leafValues>
            1.0963353514671326e-01 -8.5782712697982788e-01</leafValues></_>
        <_>
          <internalNodes>
            0 -1 196 -8.3533121505752206e-04</internalNodes>
          <leafValues>
            -5.9071910381317139e-01 1.6273547708988190e-01</leafValues></_>
        <_>
          <internalNodes>
            0 -1 69 -7.8303756890818477e-04</internalNodes>
          <leafValues>
            8.9094921946525574e-02 -8.7296712398529053e-01</leafValues></_></weakClassifiers></_>
    <!-- stage 8 -->
    <_>
      <maxWeakCount>9</maxWeakCount>
      <stageThreshold>-1.3869318962097168e+00</stageThreshold>
      <weakClassifiers>
        <_>
          <internalNodes>
            0 -1 86 -7.2526901960372925e-02</internalNodes>
          <leafValues>
            4.5794391632080078e-01 -5.4826253652572632e-01</leafValues></_>
        <_>
          <internalNodes>
            0 -1 4 -3.6525394767522812e-02</internalNodes>
          <leafValues>
            4.5164990425109863e-01 -3.1252601742744446e-01</leafValues></_>
        <_>
          <internalNodes>
            0 -1 20 7.7976530883461237e-04</internalNodes>
          <leafValues>
            1.1236777156591415e-01 -9.1198188066482544e-01</leafValues></_>
        <_>
          <internalNodes>
            0 -1 45 1.1870478047057986e-03</internalNodes>
          <leafValues>
            1.5925061702728271e-01 -9.2125076055526733e-01</leafValues></_>
        <_>
          <internalNodes>
            0 -1 152 2.1611335978377610e-04</internalNodes>
          <leafValues>
            1.6256773471832275e-01 -5.9745186567306519e-01</leafValues></_>
        <_>
          <internalNodes>
            0 -1 220 -3.4285956644453108e-04</internalNodes>
          <leafValues>
            -6.2278044223785400e-01 1.6843096911907196e-01</leafValues></_>
        <_>
          <internalNodes>
            0 -1 170 -1.1329858098179102e-03</internalNodes>
          <leafValues>
            1.3582614064216614e-01 -7.1697419881820679e-01</leafValues></_>
        <_>
          <internalNodes>
            0 -1 18 1.5937902033329010e-02</internalNodes>
          <leafValues>
            1.5310615301132202e-01 -7.4909842014312744e-01</leafValues></_>
        <_>
          <internalNodes>
            0 -1 266 -4.7255487879738212e-04</internalNodes>
          <leafValues>
            -6.2648135423660278e-01 1.2498053908348083e-01</leafValues></_></weakClassifiers></_>
    <!-- stage 9 -->
    <_>
      <maxWeakCount>11</maxWeakCount>
      <stageThreshold>-8.9760404825210571e-01</stageThreshold>
      <weakClassifiers>
        <_>
          <internalNodes>
            0 -1 13 -1.4309078454971313e-01</internalNodes>
          <leafValues>
            5.7499998807907104e-01 -5.1559633016586304e-01</leafValues></_>
        <_>
          <internalNodes>
            0 -1 74 6.2998943030834198e-04</internalNodes>
          <leafValues>
            1.1278170347213745e-01 -7.4873816967010498e-01</leafValues></_>
        <_>
          <internalNodes>
            0 -1 85 -4.1791543364524841e-02</internalNodes>
          <leafValues>
            6.9492506980895996e-01 -1.6279590129852295e-01</leafValues></_>
        <_>
          <internalNodes>
            0 -1 25 -3.9385008858516812e-04</internalNodes>
          <leafValues>
            -6.8892693519592285e-01 1.6849939525127411e-01</leafValues></_>
        <_>
          <internalNodes>
            0 -1 34 -4.0446132421493530e-02</internalNodes>
          <leafValues>
            4.6309888362884521e-01 -2.2258996963500977e-01</leafValues></_>
        <_>
          <internalNodes>
            0 -1 73 1.7187739722430706e-03</internalNodes>
          <leafValues>
            1.8528641760349274e-01 -6.6795372962951660e-01</leafValues></_>
        <_>
          <internalNodes>
            0 -1 274 2.2029515355825424e-02</internalNodes>
          <leafValues>
            -1.9458882510662079e-01 7.0457923412322998e-01</leafValues></_>
        <_>
          <internalNodes>
            0 -1 1 1.1732536950148642e-04</internalNodes>
          <leafValues>
            2.4301001429557800e-01 -4.6747571229934692e-01</leafValues></_>
        <_>
          <internalNodes>
            0 -1 128 2.7846448123455048e-02</internalNodes>
          <leafValues>
            -1.7485576868057251e-01 6.7915940284729004e-01</leafValues></_>
        <_>
          <internalNodes>
            0 -1 112 -5.6378627195954323e-03</internalNodes>
          <leafValues>
            1.9950821995735168e-01 -7.0146840810775757e-01</leafValues></_>
        <_>
          <internalNodes>
            0 -1 150 -4.4088647700846195e-03</internalNodes>
          <leafValues>
            3.6471363902091980e-01 -2.7796754240989685e-01</leafValues></_></weakClassifiers></_>
    <!-- stage 10 -->
    <_>
      <maxWeakCount>10</maxWeakCount>
      <stageThreshold>-8.6926501989364624e-01</stageThreshold>
      <weakClassifiers>
        <_>
          <internalNodes>
            0 -1 57 -1.2080921232700348e-01</internalNodes>
          <leafValues>
            2.6229506731033325e-01 -5.3081512451171875e-01</leafValues></_>
        <_>
          <internalNodes>
            0 -1 155 -5.3162225522100925e-03</internalNodes>
          <leafValues>
            -4.8057281970977783e-01 1.9180640578269958e-01</leafValues></_>
        <_>
          <internalNodes>
            0 -1 74 -8.2210550317540765e-05</internalNodes>
          <leafValues>
            -4.2138522863388062e-01 1.8223041296005249e-01</leafValues></_>
        <_>
          <internalNodes>
            0 -1 7 -5.3813662379980087e-02</internalNodes>
          <leafValues>
            4.6365594863891602e-01 -1.7123030126094818e-01</leafValues></_>
        <_>
          <internalNodes>
            0 -1 258 3.5738464794121683e-04</internalNodes>
          <leafValues>
            1.0019553452730179e-01 -6.7299193143844604e-01</leafValues></_>
        <_>
          <internalNodes>
            0 -1 185 -5.9830728918313980e-02</internalNodes>
          <leafValues>
            1.2026992440223694e-01 -8.5589605569839478e-01</leafValues></_>
        <_>
          <internalNodes>
            0 -1 252 2.0725745707750320e-02</internalNodes>
          <leafValues>
            7.7743023633956909e-02 -9.1164362430572510e-01</leafValues></_>
        <_>
          <internalNodes>
            0 -1 53 -3.2799616456031799e-03</internalNodes>
          <leafValues>
            -7.0299798250198364e-01 9.0128540992736816e-02</leafValues></_>
        <_>
          <internalNodes>
            0 -1 47 -8.1951485481113195e-04</internalNodes>
          <leafValues>
            -7.3905766010284424e-01 7.5334064662456512e-02</leafValues></_>
        <_>
          <internalNodes>
            0 -1 58 1.5348166227340698e-01</internalNodes>
          <leafValues>
            -1.7430800199508667e-01 4.6076858043670654e-01</leafValues></_></weakClassifiers></_>
    <!-- stage 11 -->
    <_>
      <maxWeakCount>15</maxWeakCount>
      <stageThreshold>-1.2730766534805298e+00</stageThreshold>
      <weakClassifiers>
        <_>
          <internalNodes>
            0 -1 11 -5.8324068784713745e-02</internalNodes>
          <leafValues>
            5.2542370557785034e-01 -4.6996465325355530e-01</leafValues></_>
        <_>
          <internalNodes>
            0 -1 23 -1.4131098985671997e-01</internalNodes>
          <leafValues>
            4.7517049312591553e-01 -2.5215086340904236e-01</leafValues></_>
        <_>
          <internalNodes>
            0 -1 293 9.7688811365514994e-05</internalNodes>
          <leafValues>
            2.8070265054702759e-01 -3.5589820146560669e-01</leafValues></_>
        <_>
          <internalNodes>
            0 -1 288 1.1246267240494490e-03</internalNodes>
          <leafValues>
            1.4461228251457214e-01 -5.6928461790084839e-01</leafValues></_>
        <_>
          <internalNodes>
            0 -1 214 4.1628383100032806e-02</internalNodes>
          <leafValues>
            -2.7353999018669128e-01 3.8378518819808960e-01</leafValues></_>
        <_>
          <internalNodes>
            0 -1 286 7.1592279709875584e-04</internalNodes>
          <leafValues>
            1.1889299750328064e-01 -8.0693548917770386e-01</leafValues></_>
        <_>
          <internalNodes>
            0 -1 165 4.7539063962176442e-04</internalNodes>
          <leafValues>
            -2.0974692702293396e-01 4.6283271908760071e-01</leafValues></_>
        <_>
          <internalNodes>
            0 -1 193 -9.1771234292536974e-04</internalNodes>
          <leafValues>
            6.5107202529907227e-01 -1.2278776615858078e-01</leafValues></_>
        <_>
          <internalNodes>
            0 -1 110 1.4707210357300937e-04</internalNodes>
          <leafValues>
            2.1146491169929504e-01 -4.6561217308044434e-01</leafValues></_>
        <_>
          <internalNodes>
            0 -1 226 -1.1525166919454932e-03</internalNodes>
          <leafValues>
            7.7388304471969604e-01 -1.4390403032302856e-01</leafValues></_>
        <_>
          <internalNodes>
            0 -1 226 1.3545410474762321e-03</internalNodes>
          <leafValues>
            -9.3703068792819977e-02 9.0028202533721924e-01</leafValues></_>
        <_>
          <internalNodes>
            0 -1 59 1.4022452523931861e-04</internalNodes>
          <leafValues>
            2.8220766782760620e-01 -3.0400979518890381e-01</leafValues></_>
        <_>
          <internalNodes>
            0 -1 41 -3.1071824952960014e-02</internalNodes>
          <leafValues>
            5.8362048864364624e-01 -1.4649231731891632e-01</leafValues></_>
        <_>
          <internalNodes>
            0 -1 81 -1.2705551460385323e-02</internalNodes>
          <leafValues>
            4.0190613269805908e-01 -2.0321656763553619e-01</leafValues></_>
        <_>
          <internalNodes>
            0 -1 0 1.5597029414493591e-04</internalNodes>
          <leafValues>
            1.7004218697547913e-01 -4.8232465982437134e-01</leafValues></_></weakClassifiers></_>
    <!-- stage 12 -->
    <_>
      <maxWeakCount>12</maxWeakCount>
      <stageThreshold>-1.3377499580383301e+00</stageThreshold>
      <weakClassifiers>
        <_>
          <internalNodes>
            0 -1 271 1.2335290201008320e-02</internalNodes>
          <leafValues>
            -6.2530416250228882e-01 1.0280373692512512e-01</leafValues></_>
        <_>
          <internalNodes>
            0 -1 3 -4.5495778322219849e-03</internalNodes>
          <leafValues>
            -5.8541047573089600e-01 1.6583466529846191e-01</leafValues></_>
        <_>
          <internalNodes>
            0 -1 109 2.1761991956736892e-04</internalNodes>
          <leafValues>
            -3.9524021744728088e-01 2.3346267640590668e-01</leafValues></_>
        <_>
          <internalNodes>
            0 -1 208 -4.9845665693283081e-02</internalNodes>
          <leafValues>
            -5.2820754051208496e-01 1.7760695517063141e-01</leafValues></_>
        <_>
          <internalNodes>
            0 -1 245 -3.0234206467866898e-02</internalNodes>
          <leafValues>
            1.1236483603715897e-01 -6.4897823333740234e-01</leafValues></_>
        <_>
          <internalNodes>
            0 -1 102 -3.3987718634307384e-03</internalNodes>
          <leafValues>
            4.2248007655143738e-01 -1.7791692912578583e-01</leafValues></_>
        <_>
          <internalNodes>
            0 -1 278 3.3893599174916744e-03</internalNodes>
          <leafValues>
            1.7532460391521454e-01 -4.4720187783241272e-01</leafValues></_>
        <_>
          <internalNodes>
            0 -1 166 -4.2147561907768250e-04</internalNodes>
          <leafValues>
            4.9164137244224548e-01 -1.5309223532676697e-01</leafValues></_>
        <_>
          <internalNodes>
            0 -1 52 -6.5201432444155216e-03</internalNodes>
          <leafValues>
            -7.3491030931472778e-01 1.0304966568946838e-01</leafValues></_>
        <_>
          <internalNodes>
            0 -1 146 -6.2737741973251104e-04</internalNodes>
          <leafValues>
            3.9107558131217957e-01 -2.1717059612274170e-01</leafValues></_>
        <_>
          <internalNodes>
            0 -1 71 -5.7792536914348602e-02</internalNodes>
          <leafValues>
            -7.0998948812484741e-01 1.0322515666484833e-01</leafValues></_>
        <_>
          <internalNodes>
            0 -1 197 -1.1991930659860373e-03</internalNodes>
          <leafValues>
            -4.8771387338638306e-01 1.3863700628280640e-01</leafValues></_></weakClassifiers></_>
    <!-- stage 13 -->
    <_>
      <maxWeakCount>16</maxWeakCount>
      <stageThreshold>-1.1424810886383057e+00</stageThreshold>
      <weakClassifiers>
        <_>
          <internalNodes>
            0 -1 36 -8.0568213015794754e-03</internalNodes>
          <leafValues>
            -2.5454545393586159e-02 -6.5142858028411865e-01</leafValues></_>
        <_>
          <internalNodes>
            0 -1 273 -3.9483848959207535e-03</internalNodes>
          <leafValues>
            3.0467981100082397e-01 -2.8705635666847229e-01</leafValues></_>
        <_>
          <internalNodes>
            0 -1 186 1.2916952837258577e-03</internalNodes>
          <leafValues>
            -1.4171856641769409e-01 4.9849039316177368e-01</leafValues></_>
        <_>
          <internalNodes>
            0 -1 260 7.3378032539039850e-04</internalNodes>
          <leafValues>
            1.8508143723011017e-01 -4.4823098182678223e-01</leafValues></_>
        <_>
          <internalNodes>
            0 -1 171 5.2522816695272923e-03</internalNodes>
          <leafValues>
            1.3096980750560760e-01 -6.6739022731781006e-01</leafValues></_>
        <_>
          <internalNodes>
            0 -1 223 -1.2548161903396249e-03</internalNodes>
          <leafValues>
            8.5398340225219727e-01 -7.5343266129493713e-02</leafValues></_>
        <_>
          <internalNodes>
            0 -1 174 -5.3195498883724213e-02</internalNodes>
          <leafValues>
            -5.7137978076934814e-01 1.3581332564353943e-01</leafValues></_>
        <_>
          <internalNodes>
            0 -1 27 -1.0288441553711891e-02</internalNodes>
          <leafValues>
            4.8403638601303101e-01 -1.7015773057937622e-01</leafValues></_>
        <_>
          <internalNodes>
            0 -1 113 1.7714861314743757e-03</internalNodes>
          <leafValues>
            -1.5176761150360107e-01 5.9408861398696899e-01</leafValues></_>
        <_>
          <internalNodes>
            0 -1 198 -1.8536243587732315e-02</internalNodes>
          <leafValues>
            4.1071864962577820e-01 -1.7754733562469482e-01</leafValues></_>
        <_>
          <internalNodes>
            0 -1 292 5.1893841009587049e-04</internalNodes>
          <leafValues>
            1.1443572491407394e-01 -6.3924074172973633e-01</leafValues></_>
        <_>
          <internalNodes>
            0 -1 108 -2.6107396930456161e-02</internalNodes>
          <leafValues>
            1.6796620190143585e-01 -4.7094953060150146e-01</leafValues></_>
        <_>
          <internalNodes>
            0 -1 227 -1.8821896519511938e-03</internalNodes>
          <leafValues>
            4.0365910530090332e-01 -2.1389766037464142e-01</leafValues></_>
        <_>
          <internalNodes>
            0 -1 10 -2.0493732881732285e-04</internalNodes>
          <leafValues>
            -2.3919333517551422e-01 2.9319322109222412e-01</leafValues></_>
        <_>
          <internalNodes>
            0 -1 175 -1.2522742617875338e-03</internalNodes>
          <leafValues>
            7.7448189258575439e-01 -1.0541597753763199e-01</leafValues></_>
        <_>
          <internalNodes>
            0 -1 184 -3.9044511504471302e-04</internalNodes>
          <leafValues>
            3.6708426475524902e-01 -1.9560769200325012e-01</leafValues></_></weakClassifiers></_>
    <!-- stage 14 -->
    <_>
      <maxWeakCount>12</maxWeakCount>
      <stageThreshold>-1.0108031034469604e+00</stageThreshold>
      <weakClassifiers>
        <_>
          <internalNodes>
            0 -1 54 2.5672982446849346e-03</internalNodes>
          <leafValues>
            -6.5601962804794312e-01 1.4678898453712463e-01</leafValues></_>
        <_>
          <internalNodes>
            0 -1 92 3.6446105223149061e-03</internalNodes>
          <leafValues>
            -2.9412284493446350e-01 5.8693832159042358e-01</leafValues></_>
        <_>
          <internalNodes>
            0 -1 176 7.0088324137032032e-03</internalNodes>
          <leafValues>
            -2.6911339163780212e-01 4.8509857058525085e-01</leafValues></_>
        <_>
          <internalNodes>
            0 -1 22 3.3854760229587555e-02</internalNodes>
          <leafValues>
            -1.5416774153709412e-01 7.6593214273452759e-01</leafValues></_>
        <_>
          <internalNodes>
            0 -1 138 -1.9119933247566223e-02</internalNodes>
          <leafValues>
            4.4020387530326843e-01 -2.5623574852943420e-01</leafValues></_>
        <_>
          <internalNodes>
            0 -1 144 -2.5369890863657929e-05</internalNodes>
          <leafValues>
            3.3347317576408386e-01 -3.4401038289070129e-01</leafValues></_>
        <_>
          <internalNodes>
            0 -1 209 -9.4910385087132454e-04</internalNodes>
          <leafValues>
            -6.2120622396469116e-01 2.2083836793899536e-01</leafValues></_>
        <_>
          <internalNodes>
            0 -1 132 -1.8573050620034337e-03</internalNodes>
          <leafValues>
            6.1008876562118530e-01 -2.3188181221485138e-01</leafValues></_>
        <_>
          <internalNodes>
            0 -1 209 5.7476479560136795e-04</internalNodes>
          <leafValues>
            1.8823455274105072e-01 -5.7977044582366943e-01</leafValues></_>
        <_>
          <internalNodes>
            0 -1 205 1.6088684787973762e-04</internalNodes>
          <leafValues>
            -2.0091812312602997e-01 5.6558263301849365e-01</leafValues></_>
        <_>
          <internalNodes>
            0 -1 164 -2.3432367015630007e-03</internalNodes>
          <leafValues>
            -1.2157197296619415e-01 8.2200264930725098e-01</leafValues></_>
        <_>
          <internalNodes>
            0 -1 131 4.8942444846034050e-04</internalNodes>
          <leafValues>
            -2.5823622941970825e-01 4.5096197724342346e-01</leafValues></_></weakClassifiers></_>
    <!-- stage 15 -->
    <_>
      <maxWeakCount>12</maxWeakCount>
      <stageThreshold>-9.8713439702987671e-01</stageThreshold>
      <weakClassifiers>
        <_>
          <internalNodes>
            0 -1 192 -1.9121109507977962e-03</internalNodes>
          <leafValues>
            -5.2049177885055542e-01 1.3868613541126251e-01</leafValues></_>
        <_>
          <internalNodes>
            0 -1 100 -2.0309062674641609e-03</internalNodes>
          <leafValues>
            -5.4503571987152100e-01 1.6444519162178040e-01</leafValues></_>
        <_>
          <internalNodes>
            0 -1 276 7.0726904086768627e-03</internalNodes>
          <leafValues>
            -1.4462633430957794e-01 6.5819704532623291e-01</leafValues></_>
        <_>
          <internalNodes>
            0 -1 203 4.1330870240926743e-02</internalNodes>
          <leafValues>
            -2.0343677699565887e-01 4.3165791034698486e-01</leafValues></_>
        <_>
          <internalNodes>
            0 -1 224 1.6100096981972456e-03</internalNodes>
          <leafValues>
            -1.4658439159393311e-01 5.2638310194015503e-01</leafValues></_>
        <_>
          <internalNodes>
            0 -1 207 -3.7652444094419479e-02</internalNodes>
          <leafValues>
            -5.2248692512512207e-01 2.2127434611320496e-01</leafValues></_>
        <_>
          <internalNodes>
            0 -1 147 -4.1006613173522055e-04</internalNodes>
          <leafValues>
            5.0993365049362183e-01 -1.9308960437774658e-01</leafValues></_>
        <_>
          <internalNodes>
            0 -1 143 -1.5698611736297607e-01</internalNodes>
          <leafValues>
            7.5170016288757324e-01 -1.2758928537368774e-01</leafValues></_>
        <_>
          <internalNodes>
            0 -1 89 -8.4353558486327529e-04</internalNodes>
          <leafValues>
            7.6541799306869507e-01 -1.0197410732507706e-01</leafValues></_>
        <_>
          <internalNodes>
            0 -1 249 -3.8397934986278415e-04</internalNodes>
          <leafValues>
            4.6007868647575378e-01 -1.8512260913848877e-01</leafValues></_>
        <_>
          <internalNodes>
            0 -1 270 1.3888604007661343e-02</internalNodes>
          <leafValues>
            -2.0776842534542084e-01 4.3171888589859009e-01</leafValues></_>
        <_>
          <internalNodes>
            0 -1 167 9.1702473582699895e-04</internalNodes>
          <leafValues>
            -1.1086409538984299e-01 7.1590757369995117e-01</leafValues></_></weakClassifiers></_>
    <!-- stage 16 -->
    <_>
      <maxWeakCount>18</maxWeakCount>
      <stageThreshold>-1.1289644241333008e+00</stageThreshold>
      <weakClassifiers>
        <_>
          <internalNodes>
            0 -1 233 -1.1529436051205266e-05</internalNodes>
          <leafValues>
            4.9751242622733116e-03 -5.5660378932952881e-01</leafValues></_>
        <_>
          <internalNodes>
            0 -1 289 -2.3250993399415165e-04</internalNodes>
          <leafValues>
            -4.0168353915214539e-01 1.6487833857536316e-01</leafValues></_>
        <_>
          <internalNodes>
            0 -1 181 -2.3453936591977254e-05</internalNodes>
          <leafValues>
            3.2858061790466309e-01 -2.2398334741592407e-01</leafValues></_>
        <_>
          <internalNodes>
            0 -1 181 1.2048560893163085e-04</internalNodes>
          <leafValues>
            -2.0527012646198273e-01 3.4412926435470581e-01</leafValues></_>
        <_>
          <internalNodes>
            0 -1 287 3.0373437330126762e-03</internalNodes>
          <leafValues>
            2.2381453216075897e-01 -3.7159714102745056e-01</leafValues></_>
        <_>
          <internalNodes>
            0 -1 255 -1.3848340131517034e-05</internalNodes>
          <leafValues>
            3.1422284245491028e-01 -2.2780698537826538e-01</leafValues></_>
        <_>
          <internalNodes>
            0 -1 99 -4.4526617974042892e-02</internalNodes>
          <leafValues>
            -6.3204187154769897e-01 1.1761382967233658e-01</leafValues></_>
        <_>
          <internalNodes>
            0 -1 228 -5.4936797823756933e-04</internalNodes>
          <leafValues>
            5.0544929504394531e-01 -1.8460512161254883e-01</leafValues></_>
        <_>
          <internalNodes>
            0 -1 43 1.2818021932616830e-03</internalNodes>
          <leafValues>
            1.6917599737644196e-01 -4.3563383817672729e-01</leafValues></_>
        <_>
          <internalNodes>
            0 -1 282 -9.8881833255290985e-03</internalNodes>
          <leafValues>
            2.9251387715339661e-01 -2.9705387353897095e-01</leafValues></_>
        <_>
          <internalNodes>
            0 -1 256 -2.5995221221819520e-05</internalNodes>
          <leafValues>
            2.8641533851623535e-01 -2.6967570185661316e-01</leafValues></_>
        <_>
          <internalNodes>
            0 -1 17 -1.7691636458039284e-03</internalNodes>
          <leafValues>
            -2.9146444797515869e-01 2.6667466759681702e-01</leafValues></_>
        <_>
          <internalNodes>
            0 -1 188 -1.6911458969116211e-01</internalNodes>
          <leafValues>
            -4.4710710644721985e-01 1.6329690814018250e-01</leafValues></_>
        <_>
          <internalNodes>
            0 -1 257 -1.4168746020004619e-05</internalNodes>
          <leafValues>
            3.0165684223175049e-01 -2.5558233261108398e-01</leafValues></_>
        <_>
          <internalNodes>
            0 -1 231 4.7267551417462528e-04</internalNodes>
          <leafValues>
            1.6889491677284241e-01 -4.3399646878242493e-01</leafValues></_>
        <_>
          <internalNodes>
            0 -1 84 -1.1732373386621475e-02</internalNodes>
          <leafValues>
            3.3208748698234558e-01 -2.4757398664951324e-01</leafValues></_>
        <_>
          <internalNodes>
            0 -1 118 5.9719355776906013e-03</internalNodes>
          <leafValues>
            -1.4843203127384186e-01 5.4657357931137085e-01</leafValues></_>
        <_>
          <internalNodes>
            0 -1 94 3.0269904527813196e-05</internalNodes>
          <leafValues>
            -2.4105446040630341e-01 3.2768276333808899e-01</leafValues></_></weakClassifiers></_>
    <!-- stage 17 -->
    <_>
      <maxWeakCount>14</maxWeakCount>
      <stageThreshold>-9.6359610557556152e-01</stageThreshold>
      <weakClassifiers>
        <_>
          <internalNodes>
            0 -1 9 2.5675754994153976e-02</internalNodes>
          <leafValues>
            -2.4267782270908356e-01 -8.0952382087707520e-01</leafValues></_>
        <_>
          <internalNodes>
            0 -1 28 -2.2497169673442841e-02</internalNodes>
          <leafValues>
            1.7042368650436401e-01 -3.3570459485054016e-01</leafValues></_>
        <_>
          <internalNodes>
            0 -1 6 -1.1238064616918564e-03</internalNodes>
          <leafValues>
            -4.7495931386947632e-01 1.9326624274253845e-01</leafValues></_>
        <_>
          <internalNodes>
            0 -1 8 6.4998436719179153e-03</internalNodes>
          <leafValues>
            9.2718377709388733e-02 -6.9480979442596436e-01</leafValues></_>
        <_>
          <internalNodes>
            0 -1 26 7.6021151617169380e-03</internalNodes>
          <leafValues>
            -1.1246502399444580e-01 6.9099307060241699e-01</leafValues></_>
        <_>
          <internalNodes>
            0 -1 125 -4.9767451855586842e-05</internalNodes>
          <leafValues>
            -3.2494944334030151e-01 2.3486916720867157e-01</leafValues></_>
        <_>
          <internalNodes>
            0 -1 107 1.1895266361534595e-03</internalNodes>
          <leafValues>
            -1.2608216702938080e-01 6.6567444801330566e-01</leafValues></_>
        <_>
          <internalNodes>
            0 -1 291 -1.6252719797194004e-04</internalNodes>
          <leafValues>
            -4.7804427146911621e-01 1.5684126317501068e-01</leafValues></_>
        <_>
          <internalNodes>
            0 -1 5 2.0381856709718704e-02</internalNodes>
          <leafValues>
            1.0471773147583008e-01 -6.2195914983749390e-01</leafValues></_>
        <_>
          <internalNodes>
            0 -1 139 -1.0466504096984863e-01</internalNodes>
          <leafValues>
            -1.1553724110126495e-01 6.8227732181549072e-01</leafValues></_>
        <_>
          <internalNodes>
            0 -1 283 -7.1024917997419834e-03</internalNodes>
          <leafValues>
            1.6449703276157379e-01 -5.3621309995651245e-01</leafValues></_>
        <_>
          <internalNodes>
            0 -1 63 -1.8393105268478394e-01</internalNodes>
          <leafValues>
            5.9229677915573120e-01 -1.1635483056306839e-01</leafValues></_>
        <_>
          <internalNodes>
            0 -1 230 2.8607551939785480e-05</internalNodes>
          <leafValues>
            -2.4725611507892609e-01 2.5843387842178345e-01</leafValues></_>
        <_>
          <internalNodes>
            0 -1 209 2.9762496706098318e-04</internalNodes>
          <leafValues>
            1.3997231423854828e-01 -4.4089427590370178e-01</leafValues></_></weakClassifiers></_>
    <!-- stage 18 -->
    <_>
      <maxWeakCount>15</maxWeakCount>
      <stageThreshold>-1.1999921798706055e+00</stageThreshold>
      <weakClassifiers>
        <_>
          <internalNodes>
            0 -1 82 -7.8669883310794830e-02</internalNodes>
          <leafValues>
            4.4827586412429810e-01 -4.6031746268272400e-01</leafValues></_>
        <_>
          <internalNodes>
            0 -1 56 -4.3131057173013687e-03</internalNodes>
          <leafValues>
            2.6086369156837463e-01 -2.8913643956184387e-01</leafValues></_>
        <_>
          <internalNodes>
            0 -1 263 5.1551533397287130e-04</internalNodes>
          <leafValues>
            -1.6686712205410004e-01 3.6740338802337646e-01</leafValues></_>
        <_>
          <internalNodes>
            0 -1 265 -1.1479474604129791e-02</internalNodes>
          <leafValues>
            3.0530491471290588e-01 -2.1284258365631104e-01</leafValues></_>
        <_>
          <internalNodes>
            0 -1 294 6.2187406001612544e-04</internalNodes>
          <leafValues>
            1.5742771327495575e-01 -4.5523902773857117e-01</leafValues></_>
        <_>
          <internalNodes>
            0 -1 194 4.2809487786144018e-04</internalNodes>
          <leafValues>
            1.7107772827148438e-01 -5.3513109683990479e-01</leafValues></_>
        <_>
          <internalNodes>
            0 -1 175 -5.1667587831616402e-04</internalNodes>
          <leafValues>
            4.8200315237045288e-01 -1.7860427498817444e-01</leafValues></_>
        <_>
          <internalNodes>
            0 -1 177 -7.0674414746463299e-04</internalNodes>
          <leafValues>
            6.1865895986557007e-01 -1.2215709686279297e-01</leafValues></_>
        <_>
          <internalNodes>
            0 -1 161 3.7908457219600677e-02</internalNodes>
          <leafValues>
            -1.7299589514732361e-01 4.1988441348075867e-01</leafValues></_>
        <_>
          <internalNodes>
            0 -1 259 -7.1194223128259182e-03</internalNodes>
          <leafValues>
            -1.1925303936004639e-01 5.3976488113403320e-01</leafValues></_>
        <_>
          <internalNodes>
            0 -1 247 -1.6122133238241076e-03</internalNodes>
          <leafValues>
            3.6797451972961426e-01 -1.7035484313964844e-01</leafValues></_>
        <_>
          <internalNodes>
            0 -1 218 1.6706008464097977e-02</internalNodes>
          <leafValues>
            -9.6618987619876862e-02 8.1785881519317627e-01</leafValues></_>
        <_>
          <internalNodes>
            0 -1 157 9.0810208348557353e-04</internalNodes>
          <leafValues>
            9.7635857760906219e-02 -8.7866240739822388e-01</leafValues></_>
        <_>
          <internalNodes>
            0 -1 156 -5.6983195245265961e-02</internalNodes>
          <leafValues>
            3.7509283423423767e-01 -1.8467468023300171e-01</leafValues></_>
        <_>
          <internalNodes>
            0 -1 251 -2.6192725636065006e-03</internalNodes>
          <leafValues>
            5.9669810533523560e-01 -1.1291844397783279e-01</leafValues></_></weakClassifiers></_>
    <!-- stage 19 -->
    <_>
      <maxWeakCount>16</maxWeakCount>
      <stageThreshold>-1.0324518680572510e+00</stageThreshold>
      <weakClassifiers>
        <_>
          <internalNodes>
            0 -1 54 5.2202702499926090e-03</internalNodes>
          <leafValues>
            -5.3271025419235229e-01 -3.5532996058464050e-02</leafValues></_>
        <_>
          <internalNodes>
            0 -1 25 2.7387792943045497e-04</internalNodes>
          <leafValues>
            8.0555677413940430e-02 -5.9353846311569214e-01</leafValues></_>
        <_>
          <internalNodes>
            0 -1 75 -7.4855925049632788e-05</internalNodes>
          <leafValues>
            -2.4358668923377991e-01 2.7171039581298828e-01</leafValues></_>
        <_>
          <internalNodes>
            0 -1 239 8.1749155651777983e-04</internalNodes>
          <leafValues>
            -1.2360420823097229e-01 5.2664721012115479e-01</leafValues></_>
        <_>
          <internalNodes>
            0 -1 50 -6.5703960135579109e-03</internalNodes>
          <leafValues>
            -8.2127016782760620e-01 9.1841772198677063e-02</leafValues></_>
        <_>
          <internalNodes>
            0 -1 79 6.4556628465652466e-02</internalNodes>
          <leafValues>
            -2.3739330470561981e-01 3.1686815619468689e-01</leafValues></_>
        <_>
          <internalNodes>
            0 -1 95 -3.2827328890562057e-02</internalNodes>
          <leafValues>
            3.8616523146629333e-01 -1.4828909933567047e-01</leafValues></_>
        <_>
          <internalNodes>
            0 -1 21 -4.5570701360702515e-02</internalNodes>
          <leafValues>
            4.9353623390197754e-01 -1.3601934909820557e-01</leafValues></_>
        <_>
          <internalNodes>
            0 -1 72 3.5996781662106514e-05</internalNodes>
          <leafValues>
            -1.9021703302860260e-01 3.1723725795745850e-01</leafValues></_>
        <_>
          <internalNodes>
            0 -1 241 2.8288464993238449e-02</internalNodes>
          <leafValues>
            7.6594516634941101e-02 -8.8606512546539307e-01</leafValues></_>
        <_>
          <internalNodes>
            0 -1 211 -5.5942852050065994e-03</internalNodes>
          <leafValues>
            4.5150178670883179e-01 -1.2792383134365082e-01</leafValues></_>
        <_>
          <internalNodes>
            0 -1 114 -8.4296613931655884e-04</internalNodes>
          <leafValues>
            6.0031288862228394e-01 -8.8756702840328217e-02</leafValues></_>
        <_>
          <internalNodes>
            0 -1 295 3.4598598722368479e-04</internalNodes>
          <leafValues>
            1.3218438625335693e-01 -5.5255246162414551e-01</leafValues></_>
        <_>
          <internalNodes>
            0 -1 191 2.8045805171132088e-02</internalNodes>
          <leafValues>
            -1.6798442602157593e-01 3.8625541329383850e-01</leafValues></_>
        <_>
          <internalNodes>
            0 -1 172 2.5271499156951904e-01</internalNodes>
          <leafValues>
            8.5522197186946869e-02 -8.8732963800430298e-01</leafValues></_>
        <_>
          <internalNodes>
            0 -1 149 -3.6818915978074074e-03</internalNodes>
          <leafValues>
            -6.1654543876647949e-01 7.6693564653396606e-02</leafValues></_></weakClassifiers></_>
    <!-- stage 20 -->
    <_>
      <maxWeakCount>21</maxWeakCount>
      <stageThreshold>-1.0954220294952393e+00</stageThreshold>
      <weakClassifiers>
        <_>
          <internalNodes>
            0 -1 101 -1.1906573921442032e-01</internalNodes>
          <leafValues>
            8.3333335816860199e-02 -4.8514851927757263e-01</leafValues></_>
        <_>
          <internalNodes>
            0 -1 201 -1.6760012134909630e-02</internalNodes>
          <leafValues>
            -8.7206894159317017e-01 2.8811687603592873e-02</leafValues></_>
        <_>
          <internalNodes>
            0 -1 33 1.0779906064271927e-02</internalNodes>
          <leafValues>
            1.0363488644361496e-01 -6.1852365732192993e-01</leafValues></_>
        <_>
          <internalNodes>
            0 -1 277 -1.8489338690415025e-03</internalNodes>
          <leafValues>
            -7.5214087963104248e-01 5.3216345608234406e-02</leafValues></_>
        <_>
          <internalNodes>
            0 -1 158 -7.2582294233143330e-03</internalNodes>
          <leafValues>
            8.2965117692947388e-01 -5.0552923232316971e-02</leafValues></_>
        <_>
          <internalNodes>
            0 -1 67 -7.5288591906428337e-03</internalNodes>
          <leafValues>
            4.6727183461189270e-01 -1.2182060629129410e-01</leafValues></_>
        <_>
          <internalNodes>
            0 -1 275 8.2824332639575005e-04</internalNodes>
          <leafValues>
            9.9072962999343872e-02 -5.6575691699981689e-01</leafValues></_>
        <_>
          <internalNodes>
            0 -1 64 -1.5338020399212837e-02</internalNodes>
          <leafValues>
            -8.0150574445724487e-01 6.6243097186088562e-02</leafValues></_>
        <_>
          <internalNodes>
            0 -1 39 -2.1936781704425812e-01</internalNodes>
          <leafValues>
            2.9161581397056580e-01 -2.1981944143772125e-01</leafValues></_>
        <_>
          <internalNodes>
            0 -1 42 -6.8848863244056702e-02</internalNodes>
          <leafValues>
            -1.4748157560825348e-01 4.7216457128524780e-01</leafValues></_>
        <_>
          <internalNodes>
            0 -1 173 9.2629957944154739e-03</internalNodes>
          <leafValues>
            1.0679887235164642e-01 -6.9218504428863525e-01</leafValues></_>
        <_>
          <internalNodes>
            0 -1 178 -3.7656796630471945e-03</internalNodes>
          <leafValues>
            4.4225087761878967e-01 -1.4857910573482513e-01</leafValues></_>
        <_>
          <internalNodes>
            0 -1 29 1.0597939603030682e-02</internalNodes>
          <leafValues>
            -1.9300213456153870e-01 2.7117210626602173e-01</leafValues></_>
        <_>
          <internalNodes>
            0 -1 137 2.8172535821795464e-03</internalNodes>
          <leafValues>
            9.3868322670459747e-02 -5.6572222709655762e-01</leafValues></_>
        <_>
          <internalNodes>
            0 -1 119 -2.9595459345728159e-03</internalNodes>
          <leafValues>
            3.6492919921875000e-01 -1.7141899466514587e-01</leafValues></_>
        <_>
          <internalNodes>
            0 -1 253 -1.1212024837732315e-02</internalNodes>
          <leafValues>
            1.1334561556577682e-01 -5.3662472963333130e-01</leafValues></_>
        <_>
          <internalNodes>
            0 -1 40 -2.0911649335175753e-03</internalNodes>
          <leafValues>
            -3.8926684856414795e-01 1.5224955976009369e-01</leafValues></_>
        <_>
          <internalNodes>
            0 -1 88 1.9757273793220520e-01</internalNodes>
          <leafValues>
            5.4558508098125458e-02 -8.3522176742553711e-01</leafValues></_>
        <_>
          <internalNodes>
            0 -1 46 3.9382374961860478e-04</internalNodes>
          <leafValues>
            1.2429320067167282e-01 -4.2108955979347229e-01</leafValues></_>
        <_>
          <internalNodes>
            0 -1 216 -3.8674585521221161e-03</internalNodes>
          <leafValues>
            5.9690910577774048e-01 -1.1270384490489960e-01</leafValues></_>
        <_>
          <internalNodes>
            0 -1 140 -2.6493193581700325e-03</internalNodes>
          <leafValues>
            3.8189616799354553e-01 -1.5976656973361969e-01</leafValues></_></weakClassifiers></_>
    <!-- stage 21 -->
    <_>
      <maxWeakCount>17</maxWeakCount>
      <stageThreshold>-8.9142721891403198e-01</stageThreshold>
      <weakClassifiers>
        <_>
          <internalNodes>
            0 -1 116 1.5606987476348877e-01</internalNodes>
          <leafValues>
            -5.0205761194229126e-01 6.4748197793960571e-02</leafValues></_>
        <_>
          <internalNodes>
            0 -1 78 1.9034424331039190e-03</internalNodes>
          <leafValues>
            -1.7416784167289734e-01 3.5940682888031006e-01</leafValues></_>
        <_>
          <internalNodes>
            0 -1 285 -5.7932315394282341e-04</internalNodes>
          <leafValues>
            -7.1795445680618286e-01 7.7010557055473328e-02</leafValues></_>
        <_>
          <internalNodes>
            0 -1 215 -7.3663868010044098e-02</internalNodes>
          <leafValues>
            -8.3321219682693481e-01 8.8248863816261292e-02</leafValues></_>
        <_>
          <internalNodes>
            0 -1 242 -3.6133605986833572e-02</internalNodes>
          <leafValues>
            3.5888963937759399e-01 -1.5481546521186829e-01</leafValues></_>
        <_>
          <internalNodes>
            0 -1 97 9.1139655560255051e-03</internalNodes>
          <leafValues>
            -1.0042575746774673e-01 6.3785660266876221e-01</leafValues></_>
        <_>
          <internalNodes>
            0 -1 151 -2.9223780147731304e-03</internalNodes>
          <leafValues>
            3.0592930316925049e-01 -1.6891564428806305e-01</leafValues></_>
        <_>
          <internalNodes>
            0 -1 234 -8.8752746582031250e-02</internalNodes>
          <leafValues>
            7.3121406137943268e-02 -6.7824625968933105e-01</leafValues></_>
        <_>
          <internalNodes>
            0 -1 200 3.0851110816001892e-02</internalNodes>
          <leafValues>
            -2.1405076980590820e-01 2.7867728471755981e-01</leafValues></_>
        <_>
          <internalNodes>
            0 -1 268 -5.1488936878740788e-04</internalNodes>
          <leafValues>
            3.5105419158935547e-01 -1.6678225994110107e-01</leafValues></_>
        <_>
          <internalNodes>
            0 -1 280 4.2805378325283527e-03</internalNodes>
          <leafValues>
            -2.1973714232444763e-01 3.5904443264007568e-01</leafValues></_>
        <_>
          <internalNodes>
            0 -1 183 -4.8650961369276047e-02</internalNodes>
          <leafValues>
            -9.0294218063354492e-01 8.3272948861122131e-02</leafValues></_>
        <_>
          <internalNodes>
            0 -1 2 -2.3542653070762753e-04</internalNodes>
          <leafValues>
            -3.8114038109779358e-01 1.2938708066940308e-01</leafValues></_>
        <_>
          <internalNodes>
            0 -1 168 -4.3621975928544998e-03</internalNodes>
          <leafValues>
            -8.8036006689071655e-01 5.3423505276441574e-02</leafValues></_>
        <_>
          <internalNodes>
            0 -1 76 -4.9934200942516327e-03</internalNodes>
          <leafValues>
            4.6014013886451721e-01 -1.3540655374526978e-01</leafValues></_>
        <_>
          <internalNodes>
            0 -1 126 -1.7012374103069305e-01</internalNodes>
          <leafValues>
            6.6423928737640381e-01 -8.7670363485813141e-02</leafValues></_>
        <_>
          <internalNodes>
            0 -1 244 -1.8308407743461430e-04</internalNodes>
          <leafValues>
            2.8252962231636047e-01 -2.1858493983745575e-01</leafValues></_></weakClassifiers></_>
    <!-- stage 22 -->
    <_>
      <maxWeakCount>19</maxWeakCount>
      <stageThreshold>-9.9866652488708496e-01</stageThreshold>
      <weakClassifiers>
        <_>
          <internalNodes>
            0 -1 127 1.1067362129688263e-01</internalNodes>
          <leafValues>
            -4.5588234066963196e-01 1.6049382090568542e-01</leafValues></_>
        <_>
          <internalNodes>
            0 -1 264 -3.8791979022789747e-05</internalNodes>
          <leafValues>
            2.2637279331684113e-01 -2.4045926332473755e-01</leafValues></_>
        <_>
          <internalNodes>
            0 -1 210 1.0036885214503855e-04</internalNodes>
          <leafValues>
            1.5742817521095276e-01 -3.1344068050384521e-01</leafValues></_>
        <_>
          <internalNodes>
            0 -1 217 -4.9629225395619869e-03</internalNodes>
          <leafValues>
            -6.5047001838684082e-01 7.2567321360111237e-02</leafValues></_>
        <_>
          <internalNodes>
            0 -1 16 7.2360765188932419e-03</internalNodes>
          <leafValues>
            -7.5866438448429108e-02 5.6565880775451660e-01</leafValues></_>
        <_>
          <internalNodes>
            0 -1 106 5.5423716548830271e-04</internalNodes>
          <leafValues>
            1.2428051233291626e-01 -4.5620742440223694e-01</leafValues></_>
        <_>
          <internalNodes>
            0 -1 135 -9.6613256027922034e-04</internalNodes>
          <leafValues>
            6.5253359079360962e-01 -5.8130078017711639e-02</leafValues></_>
        <_>
          <internalNodes>
            0 -1 248 -2.1869372576475143e-02</internalNodes>
          <leafValues>
            -2.2645191848278046e-01 2.1156251430511475e-01</leafValues></_>
        <_>
          <internalNodes>
            0 -1 130 -1.6843408346176147e-01</internalNodes>
          <leafValues>
            4.9595189094543457e-01 -1.2079106271266937e-01</leafValues></_>
        <_>
          <internalNodes>
            0 -1 190 -1.8148164963349700e-04</internalNodes>
          <leafValues>
            3.1632336974143982e-01 -2.0450587570667267e-01</leafValues></_>
        <_>
          <internalNodes>
            0 -1 87 5.3947521373629570e-03</internalNodes>
          <leafValues>
            -1.0505472868680954e-01 5.4753303527832031e-01</leafValues></_>
        <_>
          <internalNodes>
            0 -1 290 -1.5908252447843552e-02</internalNodes>
          <leafValues>
            2.2079977393150330e-01 -3.1053638458251953e-01</leafValues></_>
        <_>
          <internalNodes>
            0 -1 49 -1.2296576052904129e-02</internalNodes>
          <leafValues>
            6.4522957801818848e-01 -1.0327007621526718e-01</leafValues></_>
        <_>
          <internalNodes>
            0 -1 182 -3.1936313956975937e-02</internalNodes>
          <leafValues>
            -7.7682268619537354e-01 8.2453101873397827e-02</leafValues></_>
        <_>
          <internalNodes>
            0 -1 284 -2.1967319771647453e-03</internalNodes>
          <leafValues>
            -8.0535387992858887e-01 5.8085639029741287e-02</leafValues></_>
        <_>
          <internalNodes>
            0 -1 51 1.5066349878907204e-03</internalNodes>
          <leafValues>
            1.0244609415531158e-01 -5.0985729694366455e-01</leafValues></_>
        <_>
          <internalNodes>
            0 -1 91 4.5938774943351746e-02</internalNodes>
          <leafValues>
            -1.3342778384685516e-01 4.6466442942619324e-01</leafValues></_>
        <_>
          <internalNodes>
            0 -1 117 -1.6172325238585472e-02</internalNodes>
          <leafValues>
            3.2231059670448303e-01 -2.2745420038700104e-01</leafValues></_>
        <_>
          <internalNodes>
            0 -1 133 -5.2089686505496502e-04</internalNodes>
          <leafValues>
            4.6153587102890015e-01 -1.3564720749855042e-01</leafValues></_></weakClassifiers></_>
    <!-- stage 23 -->
    <_>
      <maxWeakCount>22</maxWeakCount>
      <stageThreshold>-1.0866659879684448e+00</stageThreshold>
      <weakClassifiers>
        <_>
          <internalNodes>
            0 -1 160 -3.1479060649871826e-02</internalNodes>
          <leafValues>
            8.7500000000000000e-01 -4.0886700153350830e-01</leafValues></_>
        <_>
          <internalNodes>
            0 -1 279 1.3363002799451351e-03</internalNodes>
          <leafValues>
            9.1173954308032990e-02 -4.7195312380790710e-01</leafValues></_>
        <_>
          <internalNodes>
            0 -1 15 1.0266907047480345e-03</internalNodes>
          <leafValues>
            6.5577507019042969e-02 -8.0146968364715576e-01</leafValues></_>
        <_>
          <internalNodes>
            0 -1 8 -6.7882984876632690e-04</internalNodes>
          <leafValues>
            -3.1404462456703186e-01 1.5910564363002777e-01</leafValues></_>
        <_>
          <internalNodes>
            0 -1 129 1.8687819829210639e-04</internalNodes>
          <leafValues>
            -1.1592946201562881e-01 4.3117153644561768e-01</leafValues></_>
        <_>
          <internalNodes>
            0 -1 212 4.8054978251457214e-03</internalNodes>
          <leafValues>
            -2.2729435563087463e-01 2.4245978891849518e-01</leafValues></_>
        <_>
          <internalNodes>
            0 -1 148 -7.4374482035636902e-02</internalNodes>
          <leafValues>
            -2.0516693592071533e-01 2.8913843631744385e-01</leafValues></_>
        <_>
          <internalNodes>
            0 -1 229 -5.5184541270136833e-04</internalNodes>
          <leafValues>
            2.8964740037918091e-01 -1.8372546136379242e-01</leafValues></_>
        <_>
          <internalNodes>
            0 -1 269 -3.7724144931416959e-05</internalNodes>
          <leafValues>
            -2.6897004246711731e-01 2.4755674600601196e-01</leafValues></_>
        <_>
          <internalNodes>
            0 -1 261 2.4806885048747063e-02</internalNodes>
          <leafValues>
            -1.6657133400440216e-01 3.8300427794456482e-01</leafValues></_>
        <_>
          <internalNodes>
            0 -1 169 -1.8840996548533440e-02</internalNodes>
          <leafValues>
            1.8092224001884460e-01 -3.5528519749641418e-01</leafValues></_>
        <_>
          <internalNodes>
            0 -1 240 -1.2887943739769980e-05</internalNodes>
          <leafValues>
            2.4668544530868530e-01 -2.0178230106830597e-01</leafValues></_>
        <_>
          <internalNodes>
            0 -1 246 -2.0384863018989563e-02</internalNodes>
          <leafValues>
            -8.9174574613571167e-01 6.3793279230594635e-02</leafValues></_>
        <_>
          <internalNodes>
            0 -1 281 6.8666064180433750e-04</internalNodes>
          <leafValues>
            7.5280182063579559e-02 -5.7500886917114258e-01</leafValues></_>
        <_>
          <internalNodes>
            0 -1 134 6.8483445793390274e-03</internalNodes>
          <leafValues>
            -1.0639294236898422e-01 5.5409675836563110e-01</leafValues></_>
        <_>
          <internalNodes>
            0 -1 66 -1.0633854195475578e-02</internalNodes>
          <leafValues>
            4.6916085481643677e-01 -1.0910145938396454e-01</leafValues></_>
        <_>
          <internalNodes>
            0 -1 62 3.4547816030681133e-03</internalNodes>
          <leafValues>
            -1.3000079989433289e-01 3.9706128835678101e-01</leafValues></_>
        <_>
          <internalNodes>
            0 -1 272 1.4514965936541557e-02</internalNodes>
          <leafValues>
            -1.6143497824668884e-01 3.4345430135726929e-01</leafValues></_>
        <_>
          <internalNodes>
            0 -1 222 -1.1321658641099930e-01</internalNodes>
          <leafValues>
            7.1009504795074463e-01 -8.3720773458480835e-02</leafValues></_>
        <_>
          <internalNodes>
            0 -1 289 -1.0898353066295385e-03</internalNodes>
          <leafValues>
            -4.1034373641014099e-01 1.5135453641414642e-01</leafValues></_>
        <_>
          <internalNodes>
            0 -1 48 -6.4009567722678185e-03</internalNodes>
          <leafValues>
            5.3423452377319336e-01 -1.1344880610704422e-01</leafValues></_>
        <_>
          <internalNodes>
            0 -1 60 3.6625313805416226e-04</internalNodes>
          <leafValues>
            1.2766042351722717e-01 -4.5848080515861511e-01</leafValues></_></weakClassifiers></_></stages>
  <features>
    <_>
      <rects>
        <_>
          0 0 1 2 -1.</_>
        <_>
          0 1 1 1 2.</_></rects>
      <tilted>0</tilted></_>
    <_>
      <rects>
        <_>
          0 0 2 2 -1.</_>
        <_>
          0 0 1 1 2.</_>
        <_>
          1 1 1 1 2.</_></rects>
      <tilted>0</tilted></_>
    <_>
      <rects>
        <_>
          0 0 1 4 -1.</_>
        <_>
          0 2 1 2 2.</_></rects>
      <tilted>0</tilted></_>
    <_>
      <rects>
        <_>
          0 0 1 12 -1.</_>
        <_>
          0 6 1 6 2.</_></rects>
      <tilted>0</tilted></_>
    <_>
      <rects>
        <_>
          0 0 1 21 -1.</_>
        <_>
          0 7 1 7 2.</_></rects>
      <tilted>0</tilted></_>
    <_>
      <rects>
        <_>
          0 0 2 14 -1.</_>
        <_>
          0 7 2 7 2.</_></rects>
      <tilted>0</tilted></_>
    <_>
      <rects>
        <_>
          0 0 6 1 -1.</_>
        <_>
          3 0 3 1 2.</_></rects>
      <tilted>0</tilted></_>
    <_>
      <rects>
        <_>
          0 0 9 3 -1.</_>
        <_>
          3 0 3 3 2.</_></rects>
      <tilted>0</tilted></_>
    <_>
      <rects>
        <_>
          0 0 8 1 -1.</_>
        <_>
          4 0 4 1 2.</_></rects>
      <tilted>0</tilted></_>
    <_>
      <rects>
        <_>
          0 0 18 2 -1.</_>
        <_>
          9 0 9 2 2.</_></rects>
      <tilted>0</tilted></_>
    <_>
      <rects>
        <_>
          0 0 19 2 -1.</_>
        <_>
          0 1 19 1 2.</_></rects>
      <tilted>0</tilted></_>
    <_>
      <rects>
        <_>
          0 0 19 4 -1.</_>
        <_>
          0 2 19 2 2.</_></rects>
      <tilted>0</tilted></_>
    <_>
      <rects>
        <_>
          0 0 23 24 -1.</_>
        <_>
          0 12 23 12 2.</_></rects>
      <tilted>0</tilted></_>
    <_>
      <rects>
        <_>
          0 0 24 3 -1.</_>
        <_>
          0 1 24 1 2.</_></rects>
      <tilted>0</tilted></_>
    <_>
      <rects>
        <_>
          0 0 24 24 -1.</_>
        <_>
          0 12 24 12 2.</_></rects>
      <tilted>0</tilted></_>
    <_>
      <rects>
        <_>
          0 1 1 2 -1.</_>
        <_>
          0 2 1 1 2.</_></rects>
      <tilted>0</tilted></_>
    <_>
      <rects>
        <_>
          0 1 2 16 -1.</_>
        <_>
          0 1 1 8 2.</_>
        <_>
          1 9 1 8 2.</_></rects>
      <tilted>0</tilted></_>
    <_>
      <rects>
        <_>
          0 1 1 18 -1.</_>
        <_>
          0 10 1 9 2.</_></rects>
      <tilted>0</tilted></_>
    <_>
      <rects>
        <_>
          0 1 2 10 -1.</_>
        <_>
          0 6 2 5 2.</_></rects>
      <tilted>0</tilted></_>
    <_>
      <rects>
        <_>
          0 1 4 19 -1.</_>
        <_>
          2 1 2 19 2.</_></rects>
      <tilted>0</tilted></_>
    <_>
      <rects>
        <_>
          0 2 2 2 -1.</_>
        <_>
          0 2 1 1 2.</_>
        <_>
          1 3 1 1 2.</_></rects>
      <tilted>0</tilted></_>
    <_>
      <rects>
        <_>
          0 2 4 21 -1.</_>
        <_>
          2 2 2 21 2.</_></rects>
      <tilted>0</tilted></_>
    <_>
      <rects>
        <_>
          0 2 23 6 -1.</_>
        <_>
          0 5 23 3 2.</_></rects>
      <tilted>0</tilted></_>
    <_>
      <rects>
        <_>
          0 2 24 16 -1.</_>
        <_>
          0 10 24 8 2.</_></rects>
      <tilted>0</tilted></_>
    <_>
      <rects>
        <_>
          0 2 24 22 -1.</_>
        <_>
          0 13 24 11 2.</_></rects>
      <tilted>0</tilted></_>
    <_>
      <rects>
        <_>
          0 3 1 2 -1.</_>
        <_>
          0 4 1 1 2.</_></rects>
      <tilted>0</tilted></_>
    <_>
      <rects>
        <_>
          0 3 2 12 -1.</_>
        <_>
          0 3 1 6 2.</_>
        <_>
          1 9 1 6 2.</_></rects>
      <tilted>0</tilted></_>
    <_>
      <rects>
        <_>
          0 3 2 21 -1.</_>
        <_>
          1 3 1 21 2.</_></rects>
      <tilted>0</tilted></_>
    <_>
      <rects>
        <_>
          0 3 8 21 -1.</_>
        <_>
          4 3 4 21 2.</_></rects>
      <tilted>0</tilted></_>
    <_>
      <rects>
        <_>
          0 4 6 14 -1.</_>
        <_>
          0 4 3 7 2.</_>
        <_>
          3 11 3 7 2.</_></rects>
      <tilted>0</tilted></_>
    <_>
      <rects>
        <_>
          0 4 6 12 -1.</_>
        <_>
          3 4 3 12 2.</_></rects>
      <tilted>0</tilted></_>
    <_>
      <rects>
        <_>
          0 4 6 16 -1.</_>
        <_>
          3 4 3 16 2.</_></rects>
      <tilted>0</tilted></_>
    <_>
      <rects>
        <_>
          0 5 3 1 -1.</_>
        <_>
          1 5 1 1 2.</_></rects>
      <tilted>0</tilted></_>
    <_>
      <rects>
        <_>
          0 5 1 14 -1.</_>
        <_>
          0 12 1 7 2.</_></rects>
      <tilted>0</tilted></_>
    <_>
      <rects>
        <_>
          0 5 6 17 -1.</_>
        <_>
          3 5 3 17 2.</_></rects>
      <tilted>0</tilted></_>
    <_>
      <rects>
        <_>
          0 5 8 7 -1.</_>
        <_>
          4 5 4 7 2.</_></rects>
      <tilted>0</tilted></_>
    <_>
      <rects>
        <_>
          0 5 10 3 -1.</_>
        <_>
          5 5 5 3 2.</_></rects>
      <tilted>0</tilted></_>
    <_>
      <rects>
        <_>
          0 5 12 5 -1.</_>
        <_>
          6 5 6 5 2.</_></rects>
      <tilted>0</tilted></_>
    <_>
      <rects>
        <_>
          0 6 1 2 -1.</_>
        <_>
          0 7 1 1 2.</_></rects>
      <tilted>0</tilted></_>
    <_>
      <rects>
        <_>
          0 6 18 8 -1.</_>
        <_>
          6 6 6 8 2.</_></rects>
      <tilted>0</tilted></_>
    <_>
      <rects>
        <_>
          0 7 1 10 -1.</_>
        <_>
          0 12 1 5 2.</_></rects>
      <tilted>0</tilted></_>
    <_>
      <rects>
        <_>
          0 7 4 14 -1.</_>
        <_>
          2 7 2 14 2.</_></rects>
      <tilted>0</tilted></_>
    <_>
      <rects>
        <_>
          0 7 24 4 -1.</_>
        <_>
          8 7 8 4 2.</_></rects>
      <tilted>0</tilted></_>
    <_>
      <rects>
        <_>
          0 8 1 8 -1.</_>
        <_>
          0 12 1 4 2.</_></rects>
      <tilted>0</tilted></_>
    <_>
      <rects>
        <_>
          0 9 1 12 -1.</_>
        <_>
          0 15 1 6 2.</_></rects>
      <tilted>0</tilted></_>
    <_>
      <rects>
        <_>
          0 11 2 2 -1.</_>
        <_>
          0 11 1 1 2.</_>
        <_>
          1 12 1 1 2.</_></rects>
      <tilted>0</tilted></_>
    <_>
      <rects>
        <_>
          0 11 1 4 -1.</_>
        <_>
          0 13 1 2 2.</_></rects>
      <tilted>0</tilted></_>
    <_>
      <rects>
        <_>
          0 12 1 2 -1.</_>
        <_>
          0 13 1 1 2.</_></rects>
      <tilted>0</tilted></_>
    <_>
      <rects>
        <_>
          0 12 2 10 -1.</_>
        <_>
          0 12 1 5 2.</_>
        <_>
          1 17 1 5 2.</_></rects>
      <tilted>0</tilted></_>
    <_>
      <rects>
        <_>
          0 12 2 11 -1.</_>
        <_>
          1 12 1 11 2.</_></rects>
      <tilted>0</tilted></_>
    <_>
      <rects>
        <_>
          0 14 1 6 -1.</_>
        <_>
          0 17 1 3 2.</_></rects>
      <tilted>0</tilted></_>
    <_>
      <rects>
        <_>
          0 17 6 2 -1.</_>
        <_>
          0 18 6 1 2.</_></rects>
      <tilted>0</tilted></_>
    <_>
      <rects>
        <_>
          0 19 3 4 -1.</_>
        <_>
          0 21 3 2 2.</_></rects>
      <tilted>0</tilted></_>
    <_>
      <rects>
        <_>
          0 20 4 4 -1.</_>
        <_>
          0 20 2 2 2.</_>
        <_>
          2 22 2 2 2.</_></rects>
      <tilted>0</tilted></_>
    <_>
      <rects>
        <_>
          0 22 24 2 -1.</_>
        <_>
          0 23 24 1 2.</_></rects>
      <tilted>0</tilted></_>
    <_>
      <rects>
        <_>
          1 0 2 23 -1.</_>
        <_>
          2 0 1 23 2.</_></rects>
      <tilted>0</tilted></_>
    <_>
      <rects>
        <_>
          1 0 2 24 -1.</_>
        <_>
          2 0 1 24 2.</_></rects>
      <tilted>0</tilted></_>
    <_>
      <rects>
        <_>
          1 0 21 8 -1.</_>
        <_>
          1 4 21 4 2.</_></rects>
      <tilted>0</tilted></_>
    <_>
      <rects>
        <_>
          1 1 23 16 -1.</_>
        <_>
          1 9 23 8 2.</_></rects>
      <tilted>0</tilted></_>
    <_>
      <rects>
        <_>
          1 2 2 4 -1.</_>
        <_>
          1 4 2 2 2.</_></rects>
      <tilted>0</tilted></_>
    <_>
      <rects>
        <_>
          1 4 1 2 -1.</_>
        <_>
          1 5 1 1 2.</_></rects>
      <tilted>0</tilted></_>
    <_>
      <rects>
        <_>
          1 4 2 6 -1.</_>
        <_>
          1 6 2 2 2.</_></rects>
      <tilted>0</tilted></_>
    <_>
      <rects>
        <_>
          1 4 16 2 -1.</_>
        <_>
          1 4 8 1 2.</_>
        <_>
          9 5 8 1 2.</_></rects>
      <tilted>0</tilted></_>
    <_>
      <rects>
        <_>
          1 4 20 18 -1.</_>
        <_>
          1 13 20 9 2.</_></rects>
      <tilted>0</tilted></_>
    <_>
      <rects>
        <_>
          1 5 3 2 -1.</_>
        <_>
          2 5 1 2 2.</_></rects>
      <tilted>0</tilted></_>
    <_>
      <rects>
        <_>
          1 5 22 15 -1.</_>
        <_>
          1 10 22 5 2.</_></rects>
      <tilted>0</tilted></_>
    <_>
      <rects>
        <_>
          1 6 20 2 -1.</_>
        <_>
          1 7 20 1 2.</_></rects>
      <tilted>0</tilted></_>
    <_>
      <rects>
        <_>
          1 7 4 8 -1.</_>
        <_>
          1 7 2 4 2.</_>
        <_>
          3 11 2 4 2.</_></rects>
      <tilted>0</tilted></_>
    <_>
      <rects>
        <_>
          1 7 3 12 -1.</_>
        <_>
          1 11 3 4 2.</_></rects>
      <tilted>0</tilted></_>
    <_>
      <rects>
        <_>
          1 10 1 3 -1.</_>
        <_>
          1 11 1 1 2.</_></rects>
      <tilted>0</tilted></_>
    <_>
      <rects>
        <_>
          1 11 17 9 -1.</_>
        <_>
          1 14 17 3 2.</_></rects>
      <tilted>0</tilted></_>
    <_>
      <rects>
        <_>
          1 14 16 10 -1.</_>
        <_>
          1 14 8 5 2.</_>
        <_>
          9 19 8 5 2.</_></rects>
      <tilted>0</tilted></_>
    <_>
      <rects>
        <_>
          1 19 2 1 -1.</_>
        <_>
          2 19 1 1 2.</_></rects>
      <tilted>0</tilted></_>
    <_>
      <rects>
        <_>
          1 19 2 4 -1.</_>
        <_>
          1 19 1 2 2.</_>
        <_>
          2 21 1 2 2.</_></rects>
      <tilted>0</tilted></_>
    <_>
      <rects>
        <_>
          2 0 2 1 -1.</_>
        <_>
          3 0 1 1 2.</_></rects>
      <tilted>0</tilted></_>
    <_>
      <rects>
        <_>
          2 0 6 4 -1.</_>
        <_>
          5 0 3 4 2.</_></rects>
      <tilted>0</tilted></_>
    <_>
      <rects>
        <_>
          2 0 12 2 -1.</_>
        <_>
          2 1 12 1 2.</_></rects>
      <tilted>0</tilted></_>
    <_>
      <rects>
        <_>
          2 0 19 24 -1.</_>
        <_>
          2 12 19 12 2.</_></rects>
      <tilted>0</tilted></_>
    <_>
      <rects>
        <_>
          2 4 10 2 -1.</_>
        <_>
          2 5 10 1 2.</_></rects>
      <tilted>0</tilted></_>
    <_>
      <rects>
        <_>
          2 6 14 14 -1.</_>
        <_>
          2 6 7 7 2.</_>
        <_>
          9 13 7 7 2.</_></rects>
      <tilted>0</tilted></_>
    <_>
      <rects>
        <_>
          2 11 14 2 -1.</_>
        <_>
          2 11 7 1 2.</_>
        <_>
          9 12 7 1 2.</_></rects>
      <tilted>0</tilted></_>
    <_>
      <rects>
        <_>
          2 15 12 3 -1.</_>
        <_>
          8 15 6 3 2.</_></rects>
      <tilted>0</tilted></_>
    <_>
      <rects>
        <_>
          2 19 22 3 -1.</_>
        <_>
          13 19 11 3 2.</_></rects>
      <tilted>0</tilted></_>
    <_>
      <rects>
        <_>
          2 22 1 2 -1.</_>
        <_>
          2 23 1 1 2.</_></rects>
      <tilted>0</tilted></_>
    <_>
      <rects>
        <_>
          3 0 3 2 -1.</_>
        <_>
          4 0 1 2 2.</_></rects>
      <tilted>0</tilted></_>
    <_>
      <rects>
        <_>
          3 0 15 4 -1.</_>
        <_>
          3 2 15 2 2.</_></rects>
      <tilted>0</tilted></_>
    <_>
      <rects>
        <_>
          3 0 19 6 -1.</_>
        <_>
          3 3 19 3 2.</_></rects>
      <tilted>0</tilted></_>
    <_>
      <rects>
        <_>
          3 1 11 2 -1.</_>
        <_>
          3 2 11 1 2.</_></rects>
      <tilted>0</tilted></_>
    <_>
      <rects>
        <_>
          3 2 20 8 -1.</_>
        <_>
          13 2 10 8 2.</_></rects>
      <tilted>0</tilted></_>
    <_>
      <rects>
        <_>
          3 4 2 2 -1.</_>
        <_>
          3 4 1 1 2.</_>
        <_>
          4 5 1 1 2.</_></rects>
      <tilted>0</tilted></_>
    <_>
      <rects>
        <_>
          3 5 4 12 -1.</_>
        <_>
          3 5 2 6 2.</_>
        <_>
          5 11 2 6 2.</_></rects>
      <tilted>0</tilted></_>
    <_>
      <rects>
        <_>
          3 5 15 8 -1.</_>
        <_>
          3 9 15 4 2.</_></rects>
      <tilted>0</tilted></_>
    <_>
      <rects>
        <_>
          3 8 15 2 -1.</_>
        <_>
          3 9 15 1 2.</_></rects>
      <tilted>0</tilted></_>
    <_>
      <rects>
        <_>
          3 10 14 9 -1.</_>
        <_>
          3 13 14 3 2.</_></rects>
      <tilted>0</tilted></_>
    <_>
      <rects>
        <_>
          3 13 2 2 -1.</_>
        <_>
          3 13 1 1 2.</_>
        <_>
          4 14 1 1 2.</_></rects>
      <tilted>0</tilted></_>
    <_>
      <rects>
        <_>
          3 14 14 5 -1.</_>
        <_>
          10 14 7 5 2.</_></rects>
      <tilted>0</tilted></_>
    <_>
      <rects>
        <_>
          3 21 18 1 -1.</_>
        <_>
          9 21 6 1 2.</_></rects>
      <tilted>0</tilted></_>
    <_>
      <rects>
        <_>
          3 22 9 2 -1.</_>
        <_>
          3 23 9 1 2.</_></rects>
      <tilted>0</tilted></_>
    <_>
      <rects>
        <_>
          3 22 15 2 -1.</_>
        <_>
          3 23 15 1 2.</_></rects>
      <tilted>0</tilted></_>
    <_>
      <rects>
        <_>
          4 0 6 3 -1.</_>
        <_>
          6 0 2 3 2.</_></rects>
      <tilted>0</tilted></_>
    <_>
      <rects>
        <_>
          4 0 12 1 -1.</_>
        <_>
          10 0 6 1 2.</_></rects>
      <tilted>0</tilted></_>
    <_>
      <rects>
        <_>
          4 0 15 8 -1.</_>
        <_>
          4 4 15 4 2.</_></rects>
      <tilted>0</tilted></_>
    <_>
      <rects>
        <_>
          4 2 14 2 -1.</_>
        <_>
          4 2 7 1 2.</_>
        <_>
          11 3 7 1 2.</_></rects>
      <tilted>0</tilted></_>
    <_>
      <rects>
        <_>
          4 4 8 8 -1.</_>
        <_>
          4 4 4 4 2.</_>
        <_>
          8 8 4 4 2.</_></rects>
      <tilted>0</tilted></_>
    <_>
      <rects>
        <_>
          4 5 6 16 -1.</_>
        <_>
          4 13 6 8 2.</_></rects>
      <tilted>0</tilted></_>
    <_>
      <rects>
        <_>
          4 5 18 9 -1.</_>
        <_>
          4 8 18 3 2.</_></rects>
      <tilted>0</tilted></_>
    <_>
      <rects>
        <_>
          4 7 2 3 -1.</_>
        <_>
          5 7 1 3 2.</_></rects>
      <tilted>0</tilted></_>
    <_>
      <rects>
        <_>
          4 11 2 2 -1.</_>
        <_>
          4 11 1 1 2.</_>
        <_>
          5 12 1 1 2.</_></rects>
      <tilted>0</tilted></_>
    <_>
      <rects>
        <_>
          4 19 15 2 -1.</_>
        <_>
          9 19 5 2 2.</_></rects>
      <tilted>0</tilted></_>
    <_>
      <rects>
        <_>
          4 22 15 2 -1.</_>
        <_>
          4 23 15 1 2.</_></rects>
      <tilted>0</tilted></_>
    <_>
      <rects>
        <_>
          5 0 2 1 -1.</_>
        <_>
          6 0 1 1 2.</_></rects>
      <tilted>0</tilted></_>
    <_>
      <rects>
        <_>
          5 0 15 8 -1.</_>
        <_>
          5 4 15 4 2.</_></rects>
      <tilted>0</tilted></_>
    <_>
      <rects>
        <_>
          5 1 6 2 -1.</_>
        <_>
          7 1 2 2 2.</_></rects>
      <tilted>0</tilted></_>
    <_>
      <rects>
        <_>
          5 1 9 2 -1.</_>
        <_>
          5 2 9 1 2.</_></rects>
      <tilted>0</tilted></_>
    <_>
      <rects>
        <_>
          5 2 2 2 -1.</_>
        <_>
          5 2 1 1 2.</_>
        <_>
          6 3 1 1 2.</_></rects>
      <tilted>0</tilted></_>
    <_>
      <rects>
        <_>
          5 3 6 3 -1.</_>
        <_>
          8 3 3 3 2.</_></rects>
      <tilted>0</tilted></_>
    <_>
      <rects>
        <_>
          5 5 13 16 -1.</_>
        <_>
          5 13 13 8 2.</_></rects>
      <tilted>0</tilted></_>
    <_>
      <rects>
        <_>
          5 6 12 6 -1.</_>
        <_>
          5 9 12 3 2.</_></rects>
      <tilted>0</tilted></_>
    <_>
      <rects>
        <_>
          5 6 16 2 -1.</_>
        <_>
          5 7 16 1 2.</_></rects>
      <tilted>0</tilted></_>
    <_>
      <rects>
        <_>
          5 8 1 12 -1.</_>
        <_>
          5 14 1 6 2.</_></rects>
      <tilted>0</tilted></_>
    <_>
      <rects>
        <_>
          5 8 10 14 -1.</_>
        <_>
          5 8 5 7 2.</_>
        <_>
          10 15 5 7 2.</_></rects>
      <tilted>0</tilted></_>
    <_>
      <rects>
        <_>
          5 10 10 4 -1.</_>
        <_>
          5 10 5 2 2.</_>
        <_>
          10 12 5 2 2.</_></rects>
      <tilted>0</tilted></_>
    <_>
      <rects>
        <_>
          5 12 12 6 -1.</_>
        <_>
          5 12 6 3 2.</_>
        <_>
          11 15 6 3 2.</_></rects>
      <tilted>0</tilted></_>
    <_>
      <rects>
        <_>
          5 13 8 4 -1.</_>
        <_>
          5 15 8 2 2.</_></rects>
      <tilted>0</tilted></_>
    <_>
      <rects>
        <_>
          5 13 18 9 -1.</_>
        <_>
          14 13 9 9 2.</_></rects>
      <tilted>0</tilted></_>
    <_>
      <rects>
        <_>
          6 0 6 1 -1.</_>
        <_>
          9 0 3 1 2.</_></rects>
      <tilted>0</tilted></_>
    <_>
      <rects>
        <_>
          6 0 3 21 -1.</_>
        <_>
          6 7 3 7 2.</_></rects>
      <tilted>0</tilted></_>
    <_>
      <rects>
        <_>
          6 0 12 17 -1.</_>
        <_>
          12 0 6 17 2.</_></rects>
      <tilted>0</tilted></_>
    <_>
      <rects>
        <_>
          6 1 15 4 -1.</_>
        <_>
          6 3 15 2 2.</_></rects>
      <tilted>0</tilted></_>
    <_>
      <rects>
        <_>
          6 3 1 2 -1.</_>
        <_>
          6 4 1 1 2.</_></rects>
      <tilted>0</tilted></_>
    <_>
      <rects>
        <_>
          6 3 16 18 -1.</_>
        <_>
          6 3 8 9 2.</_>
        <_>
          14 12 8 9 2.</_></rects>
      <tilted>0</tilted></_>
    <_>
      <rects>
        <_>
          6 4 2 10 -1.</_>
        <_>
          6 4 1 5 2.</_>
        <_>
          7 9 1 5 2.</_></rects>
      <tilted>0</tilted></_>
    <_>
      <rects>
        <_>
          6 7 6 2 -1.</_>
        <_>
          6 7 3 1 2.</_>
        <_>
          9 8 3 1 2.</_></rects>
      <tilted>0</tilted></_>
    <_>
      <rects>
        <_>
          6 8 2 2 -1.</_>
        <_>
          6 8 1 1 2.</_>
        <_>
          7 9 1 1 2.</_></rects>
      <tilted>0</tilted></_>
    <_>
      <rects>
        <_>
          6 12 16 2 -1.</_>
        <_>
          6 12 8 1 2.</_>
        <_>
          14 13 8 1 2.</_></rects>
      <tilted>0</tilted></_>
    <_>
      <rects>
        <_>
          6 14 2 2 -1.</_>
        <_>
          6 14 1 1 2.</_>
        <_>
          7 15 1 1 2.</_></rects>
      <tilted>0</tilted></_>
    <_>
      <rects>
        <_>
          6 18 1 2 -1.</_>
        <_>
          6 19 1 1 2.</_></rects>
      <tilted>0</tilted></_>
    <_>
      <rects>
        <_>
          7 0 6 1 -1.</_>
        <_>
          10 0 3 1 2.</_></rects>
      <tilted>0</tilted></_>
    <_>
      <rects>
        <_>
          7 0 7 6 -1.</_>
        <_>
          7 3 7 3 2.</_></rects>
      <tilted>0</tilted></_>
    <_>
      <rects>
        <_>
          7 0 17 9 -1.</_>
        <_>
          7 3 17 3 2.</_></rects>
      <tilted>0</tilted></_>
    <_>
      <rects>
        <_>
          7 2 8 2 -1.</_>
        <_>
          7 2 4 1 2.</_>
        <_>
          11 3 4 1 2.</_></rects>
      <tilted>0</tilted></_>
    <_>
      <rects>
        <_>
          7 4 5 8 -1.</_>
        <_>
          7 8 5 4 2.</_></rects>
      <tilted>0</tilted></_>
    <_>
      <rects>
        <_>
          7 4 14 16 -1.</_>
        <_>
          7 4 7 8 2.</_>
        <_>
          14 12 7 8 2.</_></rects>
      <tilted>0</tilted></_>
    <_>
      <rects>
        <_>
          7 5 16 14 -1.</_>
        <_>
          7 5 8 7 2.</_>
        <_>
          15 12 8 7 2.</_></rects>
      <tilted>0</tilted></_>
    <_>
      <rects>
        <_>
          7 6 2 2 -1.</_>
        <_>
          7 7 2 1 2.</_></rects>
      <tilted>0</tilted></_>
    <_>
      <rects>
        <_>
          7 6 8 18 -1.</_>
        <_>
          7 15 8 9 2.</_></rects>
      <tilted>0</tilted></_>
    <_>
      <rects>
        <_>
          7 9 4 2 -1.</_>
        <_>
          7 9 2 1 2.</_>
        <_>
          9 10 2 1 2.</_></rects>
      <tilted>0</tilted></_>
    <_>
      <rects>
        <_>
          7 10 2 2 -1.</_>
        <_>
          7 10 1 1 2.</_>
        <_>
          8 11 1 1 2.</_></rects>
      <tilted>0</tilted></_>
    <_>
      <rects>
        <_>
          7 12 6 11 -1.</_>
        <_>
          9 12 2 11 2.</_></rects>
      <tilted>0</tilted></_>
    <_>
      <rects>
        <_>
          7 13 4 1 -1.</_>
        <_>
          9 13 2 1 2.</_></rects>
      <tilted>0</tilted></_>
    <_>
      <rects>
        <_>
          7 20 14 4 -1.</_>
        <_>
          7 20 7 2 2.</_>
        <_>
          14 22 7 2 2.</_></rects>
      <tilted>0</tilted></_>
    <_>
      <rects>
        <_>
          7 21 12 3 -1.</_>
        <_>
          13 21 6 3 2.</_></rects>
      <tilted>0</tilted></_>
    <_>
      <rects>
        <_>
          8 0 2 2 -1.</_>
        <_>
          8 0 1 1 2.</_>
        <_>
          9 1 1 1 2.</_></rects>
      <tilted>0</tilted></_>
    <_>
      <rects>
        <_>
          8 0 4 1 -1.</_>
        <_>
          10 0 2 1 2.</_></rects>
      <tilted>0</tilted></_>
    <_>
      <rects>
        <_>
          8 0 6 24 -1.</_>
        <_>
          8 8 6 8 2.</_></rects>
      <tilted>0</tilted></_>
    <_>
      <rects>
        <_>
          8 0 16 1 -1.</_>
        <_>
          16 0 8 1 2.</_></rects>
      <tilted>0</tilted></_>
    <_>
      <rects>
        <_>
          8 0 16 6 -1.</_>
        <_>
          8 3 16 3 2.</_></rects>
      <tilted>0</tilted></_>
    <_>
      <rects>
        <_>
          8 1 2 1 -1.</_>
        <_>
          9 1 1 1 2.</_></rects>
      <tilted>0</tilted></_>
    <_>
      <rects>
        <_>
          8 1 3 2 -1.</_>
        <_>
          8 2 3 1 2.</_></rects>
      <tilted>0</tilted></_>
    <_>
      <rects>
        <_>
          8 1 14 4 -1.</_>
        <_>
          8 3 14 2 2.</_></rects>
      <tilted>0</tilted></_>
    <_>
      <rects>
        <_>
          8 1 15 2 -1.</_>
        <_>
          8 2 15 1 2.</_></rects>
      <tilted>0</tilted></_>
    <_>
      <rects>
        <_>
          8 6 8 13 -1.</_>
        <_>
          12 6 4 13 2.</_></rects>
      <tilted>0</tilted></_>
    <_>
      <rects>
        <_>
          8 7 2 6 -1.</_>
        <_>
          9 7 1 6 2.</_></rects>
      <tilted>0</tilted></_>
    <_>
      <rects>
        <_>
          8 8 6 8 -1.</_>
        <_>
          8 8 3 4 2.</_>
        <_>
          11 12 3 4 2.</_></rects>
      <tilted>0</tilted></_>
    <_>
      <rects>
        <_>
          8 9 6 1 -1.</_>
        <_>
          10 9 2 1 2.</_></rects>
      <tilted>0</tilted></_>
    <_>
      <rects>
        <_>
          8 10 2 2 -1.</_>
        <_>
          8 10 1 1 2.</_>
        <_>
          9 11 1 1 2.</_></rects>
      <tilted>0</tilted></_>
    <_>
      <rects>
        <_>
          8 11 2 2 -1.</_>
        <_>
          8 11 1 1 2.</_>
        <_>
          9 12 1 1 2.</_></rects>
      <tilted>0</tilted></_>
    <_>
      <rects>
        <_>
          8 12 2 2 -1.</_>
        <_>
          8 12 1 1 2.</_>
        <_>
          9 13 1 1 2.</_></rects>
      <tilted>0</tilted></_>
    <_>
      <rects>
        <_>
          8 14 4 2 -1.</_>
        <_>
          8 15 4 1 2.</_></rects>
      <tilted>0</tilted></_>
    <_>
      <rects>
        <_>
          8 15 9 2 -1.</_>
        <_>
          11 15 3 2 2.</_></rects>
      <tilted>0</tilted></_>
    <_>
      <rects>
        <_>
          8 16 1 3 -1.</_>
        <_>
          8 17 1 1 2.</_></rects>
      <tilted>0</tilted></_>
    <_>
      <rects>
        <_>
          9 0 10 1 -1.</_>
        <_>
          14 0 5 1 2.</_></rects>
      <tilted>0</tilted></_>
    <_>
      <rects>
        <_>
          9 0 14 17 -1.</_>
        <_>
          16 0 7 17 2.</_></rects>
      <tilted>0</tilted></_>
    <_>
      <rects>
        <_>
          9 6 4 3 -1.</_>
        <_>
          11 6 2 3 2.</_></rects>
      <tilted>0</tilted></_>
    <_>
      <rects>
        <_>
          9 6 5 6 -1.</_>
        <_>
          9 8 5 2 2.</_></rects>
      <tilted>0</tilted></_>
    <_>
      <rects>
        <_>
          9 10 2 2 -1.</_>
        <_>
          9 10 1 1 2.</_>
        <_>
          10 11 1 1 2.</_></rects>
      <tilted>0</tilted></_>
    <_>
      <rects>
        <_>
          9 11 2 8 -1.</_>
        <_>
          9 15 2 4 2.</_></rects>
      <tilted>0</tilted></_>
    <_>
      <rects>
        <_>
          9 13 2 2 -1.</_>
        <_>
          9 13 1 1 2.</_>
        <_>
          10 14 1 1 2.</_></rects>
      <tilted>0</tilted></_>
    <_>
      <rects>
        <_>
          9 16 14 2 -1.</_>
        <_>
          9 16 7 1 2.</_>
        <_>
          16 17 7 1 2.</_></rects>
      <tilted>0</tilted></_>
    <_>
      <rects>
        <_>
          10 0 2 1 -1.</_>
        <_>
          11 0 1 1 2.</_></rects>
      <tilted>0</tilted></_>
    <_>
      <rects>
        <_>
          10 0 9 4 -1.</_>
        <_>
          10 2 9 2 2.</_></rects>
      <tilted>0</tilted></_>
    <_>
      <rects>
        <_>
          10 4 2 2 -1.</_>
        <_>
          10 4 1 1 2.</_>
        <_>
          11 5 1 1 2.</_></rects>
      <tilted>0</tilted></_>
    <_>
      <rects>
        <_>
          10 4 1 12 -1.</_>
        <_>
          10 8 1 4 2.</_></rects>
      <tilted>0</tilted></_>
    <_>
      <rects>
        <_>
          10 4 1 18 -1.</_>
        <_>
          10 10 1 6 2.</_></rects>
      <tilted>0</tilted></_>
    <_>
      <rects>
        <_>
          10 5 4 2 -1.</_>
        <_>
          10 5 2 1 2.</_>
        <_>
          12 6 2 1 2.</_></rects>
      <tilted>0</tilted></_>
    <_>
      <rects>
        <_>
          10 5 6 16 -1.</_>
        <_>
          12 5 2 16 2.</_></rects>
      <tilted>0</tilted></_>
    <_>
      <rects>
        <_>
          10 5 3 2 -1.</_>
        <_>
          10 6 3 1 2.</_></rects>
      <tilted>0</tilted></_>
    <_>
      <rects>
        <_>
          10 5 12 12 -1.</_>
        <_>
          10 5 6 6 2.</_>
        <_>
          16 11 6 6 2.</_></rects>
      <tilted>0</tilted></_>
    <_>
      <rects>
        <_>
          10 7 6 17 -1.</_>
        <_>
          12 7 2 17 2.</_></rects>
      <tilted>0</tilted></_>
    <_>
      <rects>
        <_>
          10 7 14 6 -1.</_>
        <_>
          10 9 14 2 2.</_></rects>
      <tilted>0</tilted></_>
    <_>
      <rects>
        <_>
          10 9 1 2 -1.</_>
        <_>
          10 10 1 1 2.</_></rects>
      <tilted>0</tilted></_>
    <_>
      <rects>
        <_>
          10 10 6 10 -1.</_>
        <_>
          13 10 3 10 2.</_></rects>
      <tilted>0</tilted></_>
    <_>
      <rects>
        <_>
          10 11 3 1 -1.</_>
        <_>
          11 11 1 1 2.</_></rects>
      <tilted>0</tilted></_>
    <_>
      <rects>
        <_>
          10 12 2 2 -1.</_>
        <_>
          10 12 1 1 2.</_>
        <_>
          11 13 1 1 2.</_></rects>
      <tilted>0</tilted></_>
    <_>
      <rects>
        <_>
          10 21 2 1 -1.</_>
        <_>
          11 21 1 1 2.</_></rects>
      <tilted>0</tilted></_>
    <_>
      <rects>
        <_>
          11 0 1 8 -1.</_>
        <_>
          11 4 1 4 2.</_></rects>
      <tilted>0</tilted></_>
    <_>
      <rects>
        <_>
          11 0 4 1 -1.</_>
        <_>
          13 0 2 1 2.</_></rects>
      <tilted>0</tilted></_>
    <_>
      <rects>
        <_>
          11 0 6 1 -1.</_>
        <_>
          14 0 3 1 2.</_></rects>
      <tilted>0</tilted></_>
    <_>
      <rects>
        <_>
          11 0 11 4 -1.</_>
        <_>
          11 2 11 2 2.</_></rects>
      <tilted>0</tilted></_>
    <_>
      <rects>
        <_>
          11 0 13 4 -1.</_>
        <_>
          11 2 13 2 2.</_></rects>
      <tilted>0</tilted></_>
    <_>
      <rects>
        <_>
          11 1 10 14 -1.</_>
        <_>
          11 1 5 7 2.</_>
        <_>
          16 8 5 7 2.</_></rects>
      <tilted>0</tilted></_>
    <_>
      <rects>
        <_>
          11 1 12 1 -1.</_>
        <_>
          17 1 6 1 2.</_></rects>
      <tilted>0</tilted></_>
    <_>
      <rects>
        <_>
          11 5 4 12 -1.</_>
        <_>
          11 5 2 6 2.</_>
        <_>
          13 11 2 6 2.</_></rects>
      <tilted>0</tilted></_>
    <_>
      <rects>
        <_>
          11 6 10 10 -1.</_>
        <_>
          11 11 10 5 2.</_></rects>
      <tilted>0</tilted></_>
    <_>
      <rects>
        <_>
          11 9 3 1 -1.</_>
        <_>
          12 9 1 1 2.</_></rects>
      <tilted>0</tilted></_>
    <_>
      <rects>
        <_>
          11 17 2 2 -1.</_>
        <_>
          11 17 1 1 2.</_>
        <_>
          12 18 1 1 2.</_></rects>
      <tilted>0</tilted></_>
    <_>
      <rects>
        <_>
          12 0 2 1 -1.</_>
        <_>
          13 0 1 1 2.</_></rects>
      <tilted>0</tilted></_>
    <_>
      <rects>
        <_>
          12 0 3 6 -1.</_>
        <_>
          13 0 1 6 2.</_></rects>
      <tilted>0</tilted></_>
    <_>
      <rects>
        <_>
          12 0 3 9 -1.</_>
        <_>
          13 0 1 9 2.</_></rects>
      <tilted>0</tilted></_>
    <_>
      <rects>
        <_>
          12 0 4 1 -1.</_>
        <_>
          14 0 2 1 2.</_></rects>
      <tilted>0</tilted></_>
    <_>
      <rects>
        <_>
          12 0 4 2 -1.</_>
        <_>
          12 0 2 1 2.</_>
        <_>
          14 1 2 1 2.</_></rects>
      <tilted>0</tilted></_>
    <_>
      <rects>
        <_>
          12 1 2 19 -1.</_>
        <_>
          13 1 1 19 2.</_></rects>
      <tilted>0</tilted></_>
    <_>
      <rects>
        <_>
          12 1 12 6 -1.</_>
        <_>
          12 1 6 3 2.</_>
        <_>
          18 4 6 3 2.</_></rects>
      <tilted>0</tilted></_>
    <_>
      <rects>
        <_>
          12 2 6 12 -1.</_>
        <_>
          14 2 2 12 2.</_></rects>
      <tilted>0</tilted></_>
    <_>
      <rects>
        <_>
          12 5 12 8 -1.</_>
        <_>
          18 5 6 8 2.</_></rects>
      <tilted>0</tilted></_>
    <_>
      <rects>
        <_>
          12 8 2 15 -1.</_>
        <_>
          12 13 2 5 2.</_></rects>
      <tilted>0</tilted></_>
    <_>
      <rects>
        <_>
          12 14 7 2 -1.</_>
        <_>
          12 15 7 1 2.</_></rects>
      <tilted>0</tilted></_>
    <_>
      <rects>
        <_>
          12 17 1 6 -1.</_>
        <_>
          12 20 1 3 2.</_></rects>
      <tilted>0</tilted></_>
    <_>
      <rects>
        <_>
          12 19 4 4 -1.</_>
        <_>
          14 19 2 4 2.</_></rects>
      <tilted>0</tilted></_>
    <_>
      <rects>
        <_>
          12 22 2 2 -1.</_>
        <_>
          12 22 1 1 2.</_>
        <_>
          13 23 1 1 2.</_></rects>
      <tilted>0</tilted></_>
    <_>
      <rects>
        <_>
          12 23 2 1 -1.</_>
        <_>
          13 23 1 1 2.</_></rects>
      <tilted>0</tilted></_>
    <_>
      <rects>
        <_>
          13 0 3 4 -1.</_>
        <_>
          13 2 3 2 2.</_></rects>
      <tilted>0</tilted></_>
    <_>
      <rects>
        <_>
          13 2 8 22 -1.</_>
        <_>
          13 2 4 11 2.</_>
        <_>
          17 13 4 11 2.</_></rects>
      <tilted>0</tilted></_>
    <_>
      <rects>
        <_>
          13 3 2 2 -1.</_>
        <_>
          13 3 1 1 2.</_>
        <_>
          14 4 1 1 2.</_></rects>
      <tilted>0</tilted></_>
    <_>
      <rects>
        <_>
          13 6 4 2 -1.</_>
        <_>
          13 6 2 1 2.</_>
        <_>
          15 7 2 1 2.</_></rects>
      <tilted>0</tilted></_>
    <_>
      <rects>
        <_>
          13 9 2 2 -1.</_>
        <_>
          13 9 1 1 2.</_>
        <_>
          14 10 1 1 2.</_></rects>
      <tilted>0</tilted></_>
    <_>
      <rects>
        <_>
