<?xml version="1.0"?>
<opencv_storage>
<stage9>
  <maxWeakCount>11</maxWeakCount>
  <stageThreshold>-8.9760404825210571e-01</stageThreshold>
  <weakClassifiers>
    <_>
      <internalNodes>
        0 -1 1085 -1.4309078454971313e-01</internalNodes>
      <leafValues>
        5.7499998807907104e-01 -5.1559633016586304e-01</leafValues></_>
    <_>
      <internalNodes>
        0 -1 25804 6.2998943030834198e-04</internalNodes>
      <leafValues>
        1.1278170347213745e-01 -7.4873816967010498e-01</leafValues></_>
    <_>
      <internalNodes>
        0 -1 38790 -4.1791543364524841e-02</internalNodes>
      <leafValues>
        6.9492506980895996e-01 -1.6279590129852295e-01</leafValues></_>
    <_>
      <internalNodes>
        0 -1 3133 -3.9385008858516812e-04</internalNodes>
      <leafValues>
        -6.8892693519592285e-01 1.6849939525127411e-01</leafValues></_>
    <_>
      <internalNodes>
        0 -1 5164 -4.0446132421493530e-02</internalNodes>
      <leafValues>
        4.6309888362884521e-01 -2.2258996963500977e-01</leafValues></_>
    <_>
      <internalNodes>
        0 -1 25269 1.7187739722430706e-03</internalNodes>
      <leafValues>
        1.8528641760349274e-01 -6.6795372962951660e-01</leafValues></_>
    <_>
      <internalNodes>
        0 -1 159408 2.2029515355825424e-02</internalNodes>
      <leafValues>
        -1.9458882510662079e-01 7.0457923412322998e-01</leafValues></_>
    <_>
      <internalNodes>
        0 -1 4 1.1732536950148642e-04</internalNodes>
      <leafValues>
        2.4301001429557800e-01 -4.6747571229934692e-01</leafValues></_>
    <_>
      <internalNodes>
        0 -1 72242 2.7846448123455048e-02</internalNodes>
      <leafValues>
        -1.7485576868057251e-01 6.7915940284729004e-01</leafValues></_>
    <_>
      <internalNodes>
        0 -1 61366 -5.6378627195954323e-03</internalNodes>
      <leafValues>
        1.9950821995735168e-01 -7.0146840810775757e-01</leafValues></_>
    <_>
      <internalNodes>
        0 -1 89640 -4.4088647700846195e-03</internalNodes>
      <leafValues>
        3.6471363902091980e-01 -2.7796754240989685e-01</leafValues></_></weakClassifiers></stage9>
</opencv_storage>
