<?xml version="1.0"?>
<opencv_storage>
<stage10>
  <maxWeakCount>10</maxWeakCount>
  <stageThreshold>-8.6926501989364624e-01</stageThreshold>
  <weakClassifiers>
    <_>
      <internalNodes>
        0 -1 14362 -1.2080921232700348e-01</internalNodes>
      <leafValues>
        2.6229506731033325e-01 -5.3081512451171875e-01</leafValues></_>
    <_>
      <internalNodes>
        0 -1 90336 -5.3162225522100925e-03</internalNodes>
      <leafValues>
        -4.8057281970977783e-01 1.9180640578269958e-01</leafValues></_>
    <_>
      <internalNodes>
        0 -1 25804 -8.2210550317540765e-05</internalNodes>
      <leafValues>
        -4.2138522863388062e-01 1.8223041296005249e-01</leafValues></_>
    <_>
      <internalNodes>
        0 -1 172 -5.3813662379980087e-02</internalNodes>
      <leafValues>
        4.6365594863891602e-01 -1.7123030126094818e-01</leafValues></_>
    <_>
      <internalNodes>
        0 -1 151879 3.5738464794121683e-04</internalNodes>
      <leafValues>
        1.0019553452730179e-01 -6.7299193143844604e-01</leafValues></_>
    <_>
      <internalNodes>
        0 -1 109751 -5.9830728918313980e-02</internalNodes>
      <leafValues>
        1.2026992440223694e-01 -8.5589605569839478e-01</leafValues></_>
    <_>
      <internalNodes>
        0 -1 147900 2.0725745707750320e-02</internalNodes>
      <leafValues>
        7.7743023633956909e-02 -9.1164362430572510e-01</leafValues></_>
    <_>
      <internalNodes>
        0 -1 13021 -3.2799616456031799e-03</internalNodes>
      <leafValues>
        -7.0299798250198364e-01 9.0128540992736816e-02</leafValues></_>
    <_>
      <internalNodes>
        0 -1 10009 -8.1951485481113195e-04</internalNodes>
      <leafValues>
        -7.3905766010284424e-01 7.5334064662456512e-02</leafValues></_>
    <_>
      <internalNodes>
        0 -1 15361 1.5348166227340698e-01</internalNodes>
      <leafValues>
        -1.7430800199508667e-01 4.6076858043670654e-01</leafValues></_></weakClassifiers></stage10>
</opencv_storage>
