<?xml version="1.0"?>
<opencv_storage>
<stage20>
  <maxWeakCount>21</maxWeakCount>
  <stageThreshold>-1.0954220294952393e+00</stageThreshold>
  <weakClassifiers>
    <_>
      <internalNodes>
        0 -1 50266 -1.1906573921442032e-01</internalNodes>
      <leafValues>
        8.3333335816860199e-02 -4.8514851927757263e-01</leafValues></_>
    <_>
      <internalNodes>
        0 -1 115336 -1.6760012134909630e-02</internalNodes>
      <leafValues>
        -8.7206894159317017e-01 2.8811687603592873e-02</leafValues></_>
    <_>
      <internalNodes>
        0 -1 5015 1.0779906064271927e-02</internalNodes>
      <leafValues>
        1.0363488644361496e-01 -6.1852365732192993e-01</leafValues></_>
    <_>
      <internalNodes>
        0 -1 161312 -1.8489338690415025e-03</internalNodes>
      <leafValues>
        -7.5214087963104248e-01 5.3216345608234406e-02</leafValues></_>
    <_>
      <internalNodes>
        0 -1 90703 -7.2582294233143330e-03</internalNodes>
      <leafValues>
        8.2965117692947388e-01 -5.0552923232316971e-02</leafValues></_>
    <_>
      <internalNodes>
        0 -1 19641 -7.5288591906428337e-03</internalNodes>
      <leafValues>
        4.6727183461189270e-01 -1.2182060629129410e-01</leafValues></_>
    <_>
      <internalNodes>
        0 -1 159812 8.2824332639575005e-04</internalNodes>
      <leafValues>
        9.9072962999343872e-02 -5.6575691699981689e-01</leafValues></_>
    <_>
      <internalNodes>
        0 -1 18020 -1.5338020399212837e-02</internalNodes>
      <leafValues>
        -8.0150574445724487e-01 6.6243097186088562e-02</leafValues></_>
    <_>
      <internalNodes>
        0 -1 6168 -2.1936781704425812e-01</internalNodes>
      <leafValues>
        2.9161581397056580e-01 -2.1981944143772125e-01</leafValues></_>
    <_>
      <internalNodes>
        0 -1 7062 -6.8848863244056702e-02</internalNodes>
      <leafValues>
        -1.4748157560825348e-01 4.7216457128524780e-01</leafValues></_>
    <_>
      <internalNodes>
        0 -1 102271 9.2629957944154739e-03</internalNodes>
      <leafValues>
        1.0679887235164642e-01 -6.9218504428863525e-01</leafValues></_>
    <_>
      <internalNodes>
        0 -1 106032 -3.7656796630471945e-03</internalNodes>
      <leafValues>
        4.4225087761878967e-01 -1.4857910573482513e-01</leafValues></_>
    <_>
      <internalNodes>
        0 -1 4245 1.0597939603030682e-02</internalNodes>
      <leafValues>
        -1.9300213456153870e-01 2.7117210626602173e-01</leafValues></_>
    <_>
      <internalNodes>
        0 -1 80920 2.8172535821795464e-03</internalNodes>
      <leafValues>
        9.3868322670459747e-02 -5.6572222709655762e-01</leafValues></_>
    <_>
      <internalNodes>
        0 -1 66150 -2.9595459345728159e-03</internalNodes>
      <leafValues>
        3.6492919921875000e-01 -1.7141899466514587e-01</leafValues></_>
    <_>
      <internalNodes>
        0 -1 149220 -1.1212024837732315e-02</internalNodes>
      <leafValues>
        1.1334561556577682e-01 -5.3662472963333130e-01</leafValues></_>
    <_>
      <internalNodes>
        0 -1 6681 -2.0911649335175753e-03</internalNodes>
      <leafValues>
        -3.8926684856414795e-01 1.5224955976009369e-01</leafValues></_>
    <_>
      <internalNodes>
        0 -1 40448 1.9757273793220520e-01</internalNodes>
      <leafValues>
        5.4558508098125458e-02 -8.3522176742553711e-01</leafValues></_>
    <_>
      <internalNodes>
        0 -1 9442 3.9382374961860478e-04</internalNodes>
      <leafValues>
        1.2429320067167282e-01 -4.2108955979347229e-01</leafValues></_>
    <_>
      <internalNodes>
        0 -1 127038 -3.8674585521221161e-03</internalNodes>
      <leafValues>
        5.9690910577774048e-01 -1.1270384490489960e-01</leafValues></_>
    <_>
      <internalNodes>
        0 -1 82424 -2.6493193581700325e-03</internalNodes>
      <leafValues>
        3.8189616799354553e-01 -1.5976656973361969e-01</leafValues></_></weakClassifiers></stage20>
</opencv_storage>
